<?xml version="1.0"?>
<!-- DTD for the XMLBIF 0.3 format -->
<!DOCTYPE BIF [
	<!ELEMENT BIF ( NETWORK )*>
	      <!ATTLIST BIF VERSION CDATA #REQUIRED>
	<!ELEMENT NETWORK ( NAME, ( PROPERTY | VARIABLE | DEFINITION )* )>
	<!ELEMENT NAME (#PCDATA)>
	<!ELEMENT VARIABLE ( NAME, ( OUTCOME |  PROPERTY )* ) >
	      <!ATTLIST VARIABLE TYPE (nature|decision|utility) "nature">
	<!ELEMENT OUTCOME (#PCDATA)>
	<!ELEMENT DEFINITION ( FOR | GIVEN | TABLE | PROPERTY )* >
	<!ELEMENT FOR (#PCDATA)>
	<!ELEMENT GIVEN (#PCDATA)>
	<!ELEMENT TABLE (#PCDATA)>
	<!ELEMENT PROPERTY (#PCDATA)>
]>


<BIF VERSION="0.3">
<NETWORK>
<NAME>ds_salaries_usd+clusters-weka.filters.supervised.attribute.Discretize-Rfirst-last-precision6-weka.filters.unsupervised.attribute.ReplaceMissingValues</NAME>
<VARIABLE TYPE="nature">
	<NAME>experience_level</NAME>
	<OUTCOME>SE</OUTCOME>
	<OUTCOME>MI</OUTCOME>
	<OUTCOME>EN</OUTCOME>
	<OUTCOME>EX</OUTCOME>
	<PROPERTY>position = (238,0)</PROPERTY>
</VARIABLE>
<VARIABLE TYPE="nature">
	<NAME>job_title</NAME>
	<OUTCOME>Principal Data Scientist</OUTCOME>
	<OUTCOME>ML Engineer</OUTCOME>
	<OUTCOME>Data Scientist</OUTCOME>
	<OUTCOME>Applied Scientist</OUTCOME>
	<OUTCOME>Data Analyst</OUTCOME>
	<OUTCOME>Data Modeler</OUTCOME>
	<OUTCOME>Research Engineer</OUTCOME>
	<OUTCOME>Analytics Engineer</OUTCOME>
	<OUTCOME>Business Intelligence Engineer</OUTCOME>
	<OUTCOME>Machine Learning Engineer</OUTCOME>
	<OUTCOME>Data Strategist</OUTCOME>
	<OUTCOME>Data Engineer</OUTCOME>
	<OUTCOME>Computer Vision Engineer</OUTCOME>
	<OUTCOME>Data Quality Analyst</OUTCOME>
	<OUTCOME>Compliance Data Analyst</OUTCOME>
	<OUTCOME>Data Architect</OUTCOME>
	<OUTCOME>Applied Machine Learning Engineer</OUTCOME>
	<OUTCOME>AI Developer</OUTCOME>
	<OUTCOME>Research Scientist</OUTCOME>
	<OUTCOME>Data Analytics Manager</OUTCOME>
	<OUTCOME>Business Data Analyst</OUTCOME>
	<OUTCOME>Applied Data Scientist</OUTCOME>
	<OUTCOME>Staff Data Analyst</OUTCOME>
	<OUTCOME>ETL Engineer</OUTCOME>
	<OUTCOME>Data DevOps Engineer</OUTCOME>
	<OUTCOME>Head of Data</OUTCOME>
	<OUTCOME>Data Science Manager</OUTCOME>
	<OUTCOME>Data Manager</OUTCOME>
	<OUTCOME>Machine Learning Researcher</OUTCOME>
	<OUTCOME>Big Data Engineer</OUTCOME>
	<OUTCOME>Data Specialist</OUTCOME>
	<OUTCOME>Lead Data Analyst</OUTCOME>
	<OUTCOME>BI Data Engineer</OUTCOME>
	<OUTCOME>Director of Data Science</OUTCOME>
	<OUTCOME>Machine Learning Scientist</OUTCOME>
	<OUTCOME>MLOps Engineer</OUTCOME>
	<OUTCOME>AI Scientist</OUTCOME>
	<OUTCOME>Autonomous Vehicle Technician</OUTCOME>
	<OUTCOME>Applied Machine Learning Scientist</OUTCOME>
	<OUTCOME>Lead Data Scientist</OUTCOME>
	<OUTCOME>Cloud Database Engineer</OUTCOME>
	<OUTCOME>Financial Data Analyst</OUTCOME>
	<OUTCOME>Data Infrastructure Engineer</OUTCOME>
	<OUTCOME>Software Data Engineer</OUTCOME>
	<OUTCOME>AI Programmer</OUTCOME>
	<OUTCOME>Data Operations Engineer</OUTCOME>
	<OUTCOME>BI Developer</OUTCOME>
	<OUTCOME>Data Science Lead</OUTCOME>
	<OUTCOME>Deep Learning Researcher</OUTCOME>
	<OUTCOME>BI Analyst</OUTCOME>
	<OUTCOME>Data Science Consultant</OUTCOME>
	<OUTCOME>Data Analytics Specialist</OUTCOME>
	<OUTCOME>Machine Learning Infrastructure Engineer</OUTCOME>
	<OUTCOME>BI Data Analyst</OUTCOME>
	<OUTCOME>Head of Data Science</OUTCOME>
	<OUTCOME>Insight Analyst</OUTCOME>
	<OUTCOME>Deep Learning Engineer</OUTCOME>
	<OUTCOME>Machine Learning Software Engineer</OUTCOME>
	<OUTCOME>Big Data Architect</OUTCOME>
	<OUTCOME>Product Data Analyst</OUTCOME>
	<OUTCOME>Computer Vision Software Engineer</OUTCOME>
	<OUTCOME>Azure Data Engineer</OUTCOME>
	<OUTCOME>Marketing Data Engineer</OUTCOME>
	<OUTCOME>Data Analytics Lead</OUTCOME>
	<OUTCOME>Data Lead</OUTCOME>
	<OUTCOME>Data Science Engineer</OUTCOME>
	<OUTCOME>Machine Learning Research Engineer</OUTCOME>
	<OUTCOME>NLP Engineer</OUTCOME>
	<OUTCOME>Manager Data Management</OUTCOME>
	<OUTCOME>Machine Learning Developer</OUTCOME>
	<OUTCOME>3D Computer Vision Researcher</OUTCOME>
	<OUTCOME>Principal Machine Learning Engineer</OUTCOME>
	<OUTCOME>Data Analytics Engineer</OUTCOME>
	<OUTCOME>Data Analytics Consultant</OUTCOME>
	<OUTCOME>Data Management Specialist</OUTCOME>
	<OUTCOME>Data Science Tech Lead</OUTCOME>
	<OUTCOME>Data Scientist Lead</OUTCOME>
	<OUTCOME>Cloud Data Engineer</OUTCOME>
	<OUTCOME>Data Operations Analyst</OUTCOME>
	<OUTCOME>Marketing Data Analyst</OUTCOME>
	<OUTCOME>Power BI Developer</OUTCOME>
	<OUTCOME>Product Data Scientist</OUTCOME>
	<OUTCOME>Principal Data Architect</OUTCOME>
	<OUTCOME>Machine Learning Manager</OUTCOME>
	<OUTCOME>Lead Machine Learning Engineer</OUTCOME>
	<OUTCOME>ETL Developer</OUTCOME>
	<OUTCOME>Cloud Data Architect</OUTCOME>
	<OUTCOME>Lead Data Engineer</OUTCOME>
	<OUTCOME>Head of Machine Learning</OUTCOME>
	<OUTCOME>Principal Data Analyst</OUTCOME>
	<OUTCOME>Principal Data Engineer</OUTCOME>
	<OUTCOME>Staff Data Scientist</OUTCOME>
	<OUTCOME>Finance Data Analyst</OUTCOME>
	<PROPERTY>position = (0,96)</PROPERTY>
</VARIABLE>
<VARIABLE TYPE="nature">
	<NAME>salary_in_usd</NAME>
	<OUTCOME>-36708</OUTCOME>
	<OUTCOME>36708-38703.5</OUTCOME>
	<OUTCOME>38703.5-62863</OUTCOME>
	<OUTCOME>62863-63020</OUTCOME>
	<OUTCOME>63020-100250</OUTCOME>
	<OUTCOME>100250-165110</OUTCOME>
	<OUTCOME>+165110</OUTCOME>
	<PROPERTY>position = (119,96)</PROPERTY>
</VARIABLE>
<VARIABLE TYPE="nature">
	<NAME>employee_residence</NAME>
	<OUTCOME>ES</OUTCOME>
	<OUTCOME>US</OUTCOME>
	<OUTCOME>CA</OUTCOME>
	<OUTCOME>DE</OUTCOME>
	<OUTCOME>GB</OUTCOME>
	<OUTCOME>NG</OUTCOME>
	<OUTCOME>IN</OUTCOME>
	<OUTCOME>HK</OUTCOME>
	<OUTCOME>PT</OUTCOME>
	<OUTCOME>NL</OUTCOME>
	<OUTCOME>CH</OUTCOME>
	<OUTCOME>CF</OUTCOME>
	<OUTCOME>FR</OUTCOME>
	<OUTCOME>AU</OUTCOME>
	<OUTCOME>FI</OUTCOME>
	<OUTCOME>UA</OUTCOME>
	<OUTCOME>IE</OUTCOME>
	<OUTCOME>IL</OUTCOME>
	<OUTCOME>GH</OUTCOME>
	<OUTCOME>AT</OUTCOME>
	<OUTCOME>CO</OUTCOME>
	<OUTCOME>SG</OUTCOME>
	<OUTCOME>SE</OUTCOME>
	<OUTCOME>SI</OUTCOME>
	<OUTCOME>MX</OUTCOME>
	<OUTCOME>UZ</OUTCOME>
	<OUTCOME>BR</OUTCOME>
	<OUTCOME>TH</OUTCOME>
	<OUTCOME>HR</OUTCOME>
	<OUTCOME>PL</OUTCOME>
	<OUTCOME>KW</OUTCOME>
	<OUTCOME>VN</OUTCOME>
	<OUTCOME>CY</OUTCOME>
	<OUTCOME>AR</OUTCOME>
	<OUTCOME>AM</OUTCOME>
	<OUTCOME>BA</OUTCOME>
	<OUTCOME>KE</OUTCOME>
	<OUTCOME>GR</OUTCOME>
	<OUTCOME>MK</OUTCOME>
	<OUTCOME>LV</OUTCOME>
	<OUTCOME>RO</OUTCOME>
	<OUTCOME>PK</OUTCOME>
	<OUTCOME>IT</OUTCOME>
	<OUTCOME>MA</OUTCOME>
	<OUTCOME>LT</OUTCOME>
	<OUTCOME>BE</OUTCOME>
	<OUTCOME>AS</OUTCOME>
	<OUTCOME>IR</OUTCOME>
	<OUTCOME>HU</OUTCOME>
	<OUTCOME>SK</OUTCOME>
	<OUTCOME>CN</OUTCOME>
	<OUTCOME>CR</OUTCOME>
	<OUTCOME>TR</OUTCOME>
	<OUTCOME>CL</OUTCOME>
	<OUTCOME>PR</OUTCOME>
	<OUTCOME>DK</OUTCOME>
	<OUTCOME>BO</OUTCOME>
	<OUTCOME>PH</OUTCOME>
	<OUTCOME>DO</OUTCOME>
	<OUTCOME>EG</OUTCOME>
	<OUTCOME>ID</OUTCOME>
	<OUTCOME>AE</OUTCOME>
	<OUTCOME>MY</OUTCOME>
	<OUTCOME>JP</OUTCOME>
	<OUTCOME>EE</OUTCOME>
	<OUTCOME>HN</OUTCOME>
	<OUTCOME>TN</OUTCOME>
	<OUTCOME>CZ</OUTCOME>
	<OUTCOME>RU</OUTCOME>
	<OUTCOME>DZ</OUTCOME>
	<OUTCOME>IQ</OUTCOME>
	<OUTCOME>BG</OUTCOME>
	<OUTCOME>JE</OUTCOME>
	<OUTCOME>RS</OUTCOME>
	<OUTCOME>NZ</OUTCOME>
	<OUTCOME>MD</OUTCOME>
	<OUTCOME>LU</OUTCOME>
	<OUTCOME>MT</OUTCOME>
	<PROPERTY>position = (238,96)</PROPERTY>
</VARIABLE>
<VARIABLE TYPE="nature">
	<NAME>company_location</NAME>
	<OUTCOME>ES</OUTCOME>
	<OUTCOME>US</OUTCOME>
	<OUTCOME>CA</OUTCOME>
	<OUTCOME>DE</OUTCOME>
	<OUTCOME>GB</OUTCOME>
	<OUTCOME>NG</OUTCOME>
	<OUTCOME>IN</OUTCOME>
	<OUTCOME>HK</OUTCOME>
	<OUTCOME>NL</OUTCOME>
	<OUTCOME>CH</OUTCOME>
	<OUTCOME>CF</OUTCOME>
	<OUTCOME>FR</OUTCOME>
	<OUTCOME>FI</OUTCOME>
	<OUTCOME>UA</OUTCOME>
	<OUTCOME>IE</OUTCOME>
	<OUTCOME>IL</OUTCOME>
	<OUTCOME>GH</OUTCOME>
	<OUTCOME>CO</OUTCOME>
	<OUTCOME>SG</OUTCOME>
	<OUTCOME>AU</OUTCOME>
	<OUTCOME>SE</OUTCOME>
	<OUTCOME>SI</OUTCOME>
	<OUTCOME>MX</OUTCOME>
	<OUTCOME>BR</OUTCOME>
	<OUTCOME>PT</OUTCOME>
	<OUTCOME>RU</OUTCOME>
	<OUTCOME>TH</OUTCOME>
	<OUTCOME>HR</OUTCOME>
	<OUTCOME>VN</OUTCOME>
	<OUTCOME>EE</OUTCOME>
	<OUTCOME>AM</OUTCOME>
	<OUTCOME>BA</OUTCOME>
	<OUTCOME>KE</OUTCOME>
	<OUTCOME>GR</OUTCOME>
	<OUTCOME>MK</OUTCOME>
	<OUTCOME>LV</OUTCOME>
	<OUTCOME>RO</OUTCOME>
	<OUTCOME>PK</OUTCOME>
	<OUTCOME>IT</OUTCOME>
	<OUTCOME>MA</OUTCOME>
	<OUTCOME>PL</OUTCOME>
	<OUTCOME>AL</OUTCOME>
	<OUTCOME>AR</OUTCOME>
	<OUTCOME>LT</OUTCOME>
	<OUTCOME>AS</OUTCOME>
	<OUTCOME>CR</OUTCOME>
	<OUTCOME>IR</OUTCOME>
	<OUTCOME>BS</OUTCOME>
	<OUTCOME>HU</OUTCOME>
	<OUTCOME>AT</OUTCOME>
	<OUTCOME>SK</OUTCOME>
	<OUTCOME>TR</OUTCOME>
	<OUTCOME>PR</OUTCOME>
	<OUTCOME>DK</OUTCOME>
	<OUTCOME>BO</OUTCOME>
	<OUTCOME>PH</OUTCOME>
	<OUTCOME>BE</OUTCOME>
	<OUTCOME>ID</OUTCOME>
	<OUTCOME>EG</OUTCOME>
	<OUTCOME>AE</OUTCOME>
	<OUTCOME>LU</OUTCOME>
	<OUTCOME>MY</OUTCOME>
	<OUTCOME>HN</OUTCOME>
	<OUTCOME>CZ</OUTCOME>
	<OUTCOME>JP</OUTCOME>
	<OUTCOME>DZ</OUTCOME>
	<OUTCOME>IQ</OUTCOME>
	<OUTCOME>CN</OUTCOME>
	<OUTCOME>NZ</OUTCOME>
	<OUTCOME>CL</OUTCOME>
	<OUTCOME>MD</OUTCOME>
	<OUTCOME>MT</OUTCOME>
	<PROPERTY>position = (357,96)</PROPERTY>
</VARIABLE>
<VARIABLE TYPE="nature">
	<NAME>company_size</NAME>
	<OUTCOME>L</OUTCOME>
	<OUTCOME>S</OUTCOME>
	<OUTCOME>M</OUTCOME>
	<PROPERTY>position = (476,96)</PROPERTY>
</VARIABLE>
<VARIABLE TYPE="nature">
	<NAME>cluster</NAME>
	<OUTCOME>0</OUTCOME>
	<OUTCOME>1</OUTCOME>
	<OUTCOME>2</OUTCOME>
	<PROPERTY>position = (595,96)</PROPERTY>
</VARIABLE>
<DEFINITION>
<FOR>experience_level</FOR>
<TABLE>
0.6701731025299601 0.21398135818908123 0.08535286284953396 0.030492676431424767 
</TABLE>
</DEFINITION>
<DEFINITION>
<FOR>job_title</FOR>
	<GIVEN>experience_level</GIVEN>
<TABLE>
0.0025365853658536586 0.008390243902439025 0.23746341463414633 0.02048780487804878 0.14848780487804877 9.75609756097561E-4 0.00878048780487805 0.03180487804878049 0.0017560975609756098 0.08175609756097561 9.75609756097561E-4 0.28039024390243905 0.004878048780487805 0.0025365853658536586 1.951219512195122E-4 0.03609756097560975 1.951219512195122E-4 0.0013658536585365853 0.019317073170731707 0.004878048780487805 5.853658536585366E-4 0.0013658536585365853 1.951219512195122E-4 1.951219512195122E-4 5.853658536585366E-4 0.0013658536585365853 0.017756097560975608 0.008 5.853658536585366E-4 0.0013658536585365853 0.0037073170731707315 5.853658536585366E-4 1.951219512195122E-4 0.0013658536585365853 0.00448780487804878 1.951219512195122E-4 0.0013658536585365853 1.951219512195122E-4 0.0017560975609756098 0.002926829268292683 0.0021463414634146343 1.951219512195122E-4 9.75609756097561E-4 5.853658536585366E-4 1.951219512195122E-4 0.0017560975609756098 0.00448780487804878 0.0021463414634146343 5.853658536585366E-4 0.0021463414634146343 0.00448780487804878 9.75609756097561E-4 0.002926829268292683 5.853658536585366E-4 1.951219512195122E-4 1.951219512195122E-4 1.951219512195122E-4 0.0037073170731707315 9.75609756097561E-4 1.951219512195122E-4 5.853658536585366E-4 5.853658536585366E-4 1.951219512195122E-4 5.853658536585366E-4 9.75609756097561E-4 0.0017560975609756098 1.951219512195122E-4 0.0017560975609756098 5.853658536585366E-4 5.853658536585366E-4 5.853658536585366E-4 5.853658536585366E-4 9.75609756097561E-4 1.951219512195122E-4 5.853658536585366E-4 5.853658536585366E-4 5.853658536585366E-4 9.75609756097561E-4 0.0017560975609756098 9.75609756097561E-4 1.951219512195122E-4 5.853658536585366E-4 5.853658536585366E-4 0.0013658536585365853 0.0013658536585365853 0.0033170731707317072 5.853658536585366E-4 0.0017560975609756098 1.951219512195122E-4 5.853658536585366E-4 9.75609756097561E-4 5.853658536585366E-4 5.853658536585366E-4 
0.0017657445556209534 0.01353737492642731 0.19011183048852265 5.885815185403178E-4 0.19717480871100648 5.885815185403178E-4 0.006474396703943496 0.015891701000588582 5.885815185403178E-4 0.07004120070629782 5.885815185403178E-4 0.24190700412007063 0.002942907592701589 5.885815185403178E-4 5.885815185403178E-4 0.008828722778104767 0.002942907592701589 0.002942907592701589 0.026486168334314303 0.010005885815185403 0.010005885815185403 0.00529723366686286 5.885815185403178E-4 0.002942907592701589 5.885815185403178E-4 0.0017657445556209534 0.010005885815185403 0.007651559741024131 0.006474396703943496 0.00529723366686286 0.00529723366686286 0.00529723366686286 5.885815185403178E-4 5.885815185403178E-4 0.01353737492642731 0.00529723366686286 0.006474396703943496 0.0017657445556209534 0.007651559741024131 0.002942907592701589 5.885815185403178E-4 0.002942907592701589 0.00529723366686286 0.0017657445556209534 5.885815185403178E-4 0.007651559741024131 5.885815185403178E-4 0.004120070629782225 5.885815185403178E-4 0.002942907592701589 0.006474396703943496 5.885815185403178E-4 0.00529723366686286 0.008828722778104767 0.002942907592701589 0.002942907592701589 0.00529723366686286 5.885815185403178E-4 5.885815185403178E-4 0.00529723366686286 0.0017657445556209534 5.885815185403178E-4 5.885815185403178E-4 0.0017657445556209534 5.885815185403178E-4 0.0017657445556209534 0.0017657445556209534 0.002942907592701589 5.885815185403178E-4 0.0017657445556209534 0.0017657445556209534 5.885815185403178E-4 0.002942907592701589 0.0017657445556209534 5.885815185403178E-4 5.885815185403178E-4 0.0017657445556209534 0.0017657445556209534 5.885815185403178E-4 5.885815185403178E-4 5.885815185403178E-4 5.885815185403178E-4 5.885815185403178E-4 5.885815185403178E-4 5.885815185403178E-4 0.002942907592701589 5.885815185403178E-4 0.0017657445556209534 5.885815185403178E-4 0.0017657445556209534 5.885815185403178E-4 5.885815185403178E-4 5.885815185403178E-4 
0.001364256480218281 0.0068212824010914054 0.16234652114597545 0.017735334242837655 0.17326057298772168 0.001364256480218281 0.0286493860845839 0.004092769440654843 0.001364256480218281 0.058663028649386086 0.001364256480218281 0.18144611186903137 0.01227830832196453 0.004092769440654843 0.004092769440654843 0.001364256480218281 0.001364256480218281 0.017735334242837655 0.02592087312414734 0.001364256480218281 0.017735334242837655 0.009549795361527967 0.001364256480218281 0.001364256480218281 0.001364256480218281 0.001364256480218281 0.001364256480218281 0.0068212824010914054 0.001364256480218281 0.01227830832196453 0.004092769440654843 0.001364256480218281 0.004092769440654843 0.001364256480218281 0.0068212824010914054 0.001364256480218281 0.020463847203274217 0.004092769440654843 0.0068212824010914054 0.001364256480218281 0.001364256480218281 0.004092769440654843 0.001364256480218281 0.001364256480218281 0.0068212824010914054 0.001364256480218281 0.0068212824010914054 0.001364256480218281 0.001364256480218281 0.0068212824010914054 0.020463847203274217 0.001364256480218281 0.001364256480218281 0.017735334242837655 0.001364256480218281 0.001364256480218281 0.0068212824010914054 0.004092769440654843 0.001364256480218281 0.004092769440654843 0.009549795361527967 0.001364256480218281 0.004092769440654843 0.001364256480218281 0.001364256480218281 0.001364256480218281 0.009549795361527967 0.001364256480218281 0.001364256480218281 0.015006821282401092 0.0068212824010914054 0.001364256480218281 0.0068212824010914054 0.004092769440654843 0.001364256480218281 0.001364256480218281 0.001364256480218281 0.001364256480218281 0.001364256480218281 0.001364256480218281 0.004092769440654843 0.001364256480218281 0.001364256480218281 0.001364256480218281 0.001364256480218281 0.001364256480218281 0.001364256480218281 0.001364256480218281 0.001364256480218281 0.001364256480218281 0.001364256480218281 0.001364256480218281 0.001364256480218281 
0.009345794392523364 0.003115264797507788 0.0778816199376947 0.003115264797507788 0.01557632398753894 0.003115264797507788 0.003115264797507788 0.0529595015576324 0.003115264797507788 0.003115264797507788 0.003115264797507788 0.32087227414330216 0.003115264797507788 0.003115264797507788 0.003115264797507788 0.01557632398753894 0.003115264797507788 0.003115264797507788 0.009345794392523364 0.01557632398753894 0.003115264797507788 0.003115264797507788 0.009345794392523364 0.003115264797507788 0.003115264797507788 0.040498442367601244 0.03426791277258567 0.009345794392523364 0.003115264797507788 0.003115264797507788 0.003115264797507788 0.003115264797507788 0.003115264797507788 0.0529595015576324 0.01557632398753894 0.003115264797507788 0.009345794392523364 0.003115264797507788 0.003115264797507788 0.003115264797507788 0.003115264797507788 0.003115264797507788 0.003115264797507788 0.003115264797507788 0.003115264797507788 0.003115264797507788 0.003115264797507788 0.003115264797507788 0.003115264797507788 0.003115264797507788 0.009345794392523364 0.003115264797507788 0.003115264797507788 0.009345794392523364 0.04672897196261682 0.003115264797507788 0.003115264797507788 0.003115264797507788 0.003115264797507788 0.003115264797507788 0.003115264797507788 0.003115264797507788 0.003115264797507788 0.003115264797507788 0.003115264797507788 0.003115264797507788 0.003115264797507788 0.003115264797507788 0.003115264797507788 0.003115264797507788 0.003115264797507788 0.003115264797507788 0.003115264797507788 0.003115264797507788 0.003115264797507788 0.003115264797507788 0.003115264797507788 0.003115264797507788 0.003115264797507788 0.003115264797507788 0.003115264797507788 0.003115264797507788 0.003115264797507788 0.003115264797507788 0.003115264797507788 0.003115264797507788 0.003115264797507788 0.009345794392523364 0.009345794392523364 0.003115264797507788 0.003115264797507788 0.003115264797507788 0.003115264797507788 
</TABLE>
</DEFINITION>
<DEFINITION>
<FOR>salary_in_usd</FOR>
	<GIVEN>experience_level</GIVEN>
<TABLE>
0.004961301845604287 0.010121055765032744 0.027981742409208175 0.006548918436197659 0.11569755903949196 0.45663822186941855 0.37805120063504666 
0.07377557346559206 0.006819590824550527 0.13949163050216987 6.199628022318661E-4 0.319280843149411 0.3601983880967142 0.09981401115933045 
0.23338485316846985 0.0015455950540958269 0.21483771251931993 0.0015455950540958269 0.2828438948995363 0.21483771251931993 0.05100463678516229 
0.01276595744680851 0.00425531914893617 0.00425531914893617 0.00425531914893617 0.05531914893617021 0.31063829787234043 0.6085106382978723 
</TABLE>
</DEFINITION>
<DEFINITION>
<FOR>employee_residence</FOR>
	<GIVEN>experience_level</GIVEN>
<TABLE>
0.02054794520547945 0.8819960861056751 0.023679060665362035 0.006066536203522505 0.013894324853228963 9.784735812133072E-4 0.004500978473581213 1.9569471624266145E-4 0.004500978473581213 0.0017612524461839531 1.9569471624266145E-4 9.784735812133072E-4 0.004892367906066536 9.784735812133072E-4 5.870841487279843E-4 0.0013698630136986301 0.002152641878669276 5.870841487279843E-4 1.9569471624266145E-4 5.870841487279843E-4 0.0013698630136986301 1.9569471624266145E-4 1.9569471624266145E-4 5.870841487279843E-4 0.002152641878669276 1.9569471624266145E-4 0.0017612524461839531 5.870841487279843E-4 5.870841487279843E-4 5.870841487279843E-4 1.9569471624266145E-4 5.870841487279843E-4 5.870841487279843E-4 9.784735812133072E-4 1.9569471624266145E-4 1.9569471624266145E-4 1.9569471624266145E-4 0.0013698630136986301 1.9569471624266145E-4 0.0017612524461839531 5.870841487279843E-4 1.9569471624266145E-4 5.870841487279843E-4 1.9569471624266145E-4 1.9569471624266145E-4 5.870841487279843E-4 1.9569471624266145E-4 1.9569471624266145E-4 1.9569471624266145E-4 5.870841487279843E-4 1.9569471624266145E-4 1.9569471624266145E-4 5.870841487279843E-4 1.9569471624266145E-4 0.002152641878669276 1.9569471624266145E-4 1.9569471624266145E-4 5.870841487279843E-4 1.9569471624266145E-4 1.9569471624266145E-4 1.9569471624266145E-4 9.784735812133072E-4 5.870841487279843E-4 9.784735812133072E-4 1.9569471624266145E-4 1.9569471624266145E-4 1.9569471624266145E-4 1.9569471624266145E-4 5.870841487279843E-4 1.9569471624266145E-4 1.9569471624266145E-4 5.870841487279843E-4 1.9569471624266145E-4 1.9569471624266145E-4 5.870841487279843E-4 1.9569471624266145E-4 1.9569471624266145E-4 1.9569471624266145E-4 
0.02672209026128266 0.5706650831353919 0.01840855106888361 0.020783847980997625 0.13954869358669833 0.0017814726840855108 0.03859857482185273 0.0029691211401425177 0.004156769596199525 0.008907363420427554 0.0029691211401425177 5.938242280285036E-4 0.019596199524940617 0.006532066508313539 0.0017814726840855108 5.938242280285036E-4 0.0029691211401425177 5.938242280285036E-4 0.0017814726840855108 0.005344418052256532 5.938242280285036E-4 0.005344418052256532 5.938242280285036E-4 0.004156769596199525 0.005344418052256532 5.938242280285036E-4 0.012470308788598575 0.0017814726840855108 0.0029691211401425177 0.005344418052256532 5.938242280285036E-4 0.0017814726840855108 5.938242280285036E-4 5.938242280285036E-4 0.0017814726840855108 5.938242280285036E-4 0.0017814726840855108 0.014845605700712588 5.938242280285036E-4 5.938242280285036E-4 0.0029691211401425177 0.0029691211401425177 0.0029691211401425177 5.938242280285036E-4 0.0029691211401425177 0.0017814726840855108 0.0017814726840855108 5.938242280285036E-4 0.0029691211401425177 5.938242280285036E-4 5.938242280285036E-4 5.938242280285036E-4 0.005344418052256532 0.0017814726840855108 5.938242280285036E-4 5.938242280285036E-4 0.004156769596199525 0.0017814726840855108 5.938242280285036E-4 0.0017814726840855108 5.938242280285036E-4 0.0017814726840855108 5.938242280285036E-4 0.004156769596199525 0.0017814726840855108 0.0017814726840855108 5.938242280285036E-4 0.0017814726840855108 0.0017814726840855108 5.938242280285036E-4 5.938242280285036E-4 5.938242280285036E-4 5.938242280285036E-4 0.0017814726840855108 5.938242280285036E-4 0.0017814726840855108 5.938242280285036E-4 0.0017814726840855108 
0.01532033426183844 0.4832869080779944 0.020891364902506964 0.0403899721448468 0.037604456824512536 0.009749303621169917 0.07381615598885793 0.001392757660167131 0.012534818941504178 0.009749303621169917 0.006963788300835654 0.001392757660167131 0.026462395543175487 0.012534818941504178 0.001392757660167131 0.004178272980501393 0.001392757660167131 0.001392757660167131 0.004178272980501393 0.004178272980501393 0.004178272980501393 0.004178272980501393 0.006963788300835654 0.001392757660167131 0.004178272980501393 0.004178272980501393 0.012534818941504178 0.004178272980501393 0.001392757660167131 0.004178272980501393 0.004178272980501393 0.004178272980501393 0.001392757660167131 0.012534818941504178 0.001392757660167131 0.004178272980501393 0.004178272980501393 0.004178272980501393 0.004178272980501393 0.001392757660167131 0.001392757660167131 0.018105849582172703 0.012534818941504178 0.004178272980501393 0.001392757660167131 0.009749303621169917 0.004178272980501393 0.004178272980501393 0.004178272980501393 0.001392757660167131 0.004178272980501393 0.004178272980501393 0.001392757660167131 0.004178272980501393 0.001392757660167131 0.009749303621169917 0.001392757660167131 0.001392757660167131 0.004178272980501393 0.001392757660167131 0.004178272980501393 0.001392757660167131 0.001392757660167131 0.006963788300835654 0.001392757660167131 0.001392757660167131 0.004178272980501393 0.001392757660167131 0.001392757660167131 0.004178272980501393 0.004178272980501393 0.001392757660167131 0.004178272980501393 0.001392757660167131 0.001392757660167131 0.001392757660167131 0.004178272980501393 0.001392757660167131 
0.00980392156862745 0.6372549019607843 0.02287581699346405 0.016339869281045753 0.016339869281045753 0.00980392156862745 0.016339869281045753 0.0032679738562091504 0.0032679738562091504 0.00980392156862745 0.0032679738562091504 0.0032679738562091504 0.00980392156862745 0.0032679738562091504 0.0032679738562091504 0.0032679738562091504 0.0032679738562091504 0.0032679738562091504 0.0032679738562091504 0.0032679738562091504 0.0032679738562091504 0.0032679738562091504 0.0032679738562091504 0.0032679738562091504 0.0032679738562091504 0.00980392156862745 0.0032679738562091504 0.0032679738562091504 0.0032679738562091504 0.0032679738562091504 0.0032679738562091504 0.0032679738562091504 0.0032679738562091504 0.0032679738562091504 0.0032679738562091504 0.0032679738562091504 0.0032679738562091504 0.0032679738562091504 0.0032679738562091504 0.0032679738562091504 0.0032679738562091504 0.0032679738562091504 0.00980392156862745 0.0032679738562091504 0.0032679738562091504 0.0032679738562091504 0.0032679738562091504 0.0032679738562091504 0.0032679738562091504 0.0032679738562091504 0.0032679738562091504 0.0032679738562091504 0.0032679738562091504 0.0032679738562091504 0.0032679738562091504 0.0032679738562091504 0.0032679738562091504 0.0032679738562091504 0.0032679738562091504 0.0032679738562091504 0.0032679738562091504 0.0032679738562091504 0.0032679738562091504 0.0032679738562091504 0.0032679738562091504 0.0032679738562091504 0.0032679738562091504 0.0032679738562091504 0.016339869281045753 0.0032679738562091504 0.0032679738562091504 0.0032679738562091504 0.0032679738562091504 0.0032679738562091504 0.0032679738562091504 0.0032679738562091504 0.0032679738562091504 0.0032679738562091504 
</TABLE>
</DEFINITION>
<DEFINITION>
<FOR>company_location</FOR>
	<GIVEN>experience_level</GIVEN>
<TABLE>
0.019788401253918494 0.8865595611285266 0.024098746081504703 0.006073667711598746 0.015869905956112852 5.877742946708464E-4 0.0037225705329153604 1.9592476489028212E-4 0.001371473354231975 1.9592476489028212E-4 9.796238244514106E-4 0.004506269592476489 9.796238244514106E-4 0.001371473354231975 0.0021551724137931034 5.877742946708464E-4 1.9592476489028212E-4 0.001371473354231975 5.877742946708464E-4 0.001371473354231975 1.9592476489028212E-4 5.877742946708464E-4 0.0025470219435736676 9.796238244514106E-4 0.0041144200626959246 1.9592476489028212E-4 5.877742946708464E-4 5.877742946708464E-4 1.9592476489028212E-4 5.877742946708464E-4 1.9592476489028212E-4 1.9592476489028212E-4 1.9592476489028212E-4 5.877742946708464E-4 1.9592476489028212E-4 0.0017633228840125393 1.9592476489028212E-4 1.9592476489028212E-4 5.877742946708464E-4 1.9592476489028212E-4 1.9592476489028212E-4 5.877742946708464E-4 1.9592476489028212E-4 1.9592476489028212E-4 1.9592476489028212E-4 1.9592476489028212E-4 1.9592476489028212E-4 1.9592476489028212E-4 1.9592476489028212E-4 5.877742946708464E-4 5.877742946708464E-4 5.877742946708464E-4 0.0017633228840125393 5.877742946708464E-4 1.9592476489028212E-4 5.877742946708464E-4 5.877742946708464E-4 1.9592476489028212E-4 1.9592476489028212E-4 9.796238244514106E-4 1.9592476489028212E-4 1.9592476489028212E-4 1.9592476489028212E-4 1.9592476489028212E-4 9.796238244514106E-4 1.9592476489028212E-4 1.9592476489028212E-4 1.9592476489028212E-4 5.877742946708464E-4 1.9592476489028212E-4 1.9592476489028212E-4 1.9592476489028212E-4 
0.02443384982121573 0.5917759237187128 0.018474374255065554 0.023241954707985697 0.1400476758045292 0.0017878426698450535 0.030393325387365912 0.0017878426698450535 0.008939213349225268 0.0029797377830750892 5.959475566150178E-4 0.01728247914183552 0.0017878426698450535 5.959475566150178E-4 0.0029797377830750892 0.0017878426698450535 0.0017878426698450535 5.959475566150178E-4 0.005363528009535161 0.006555423122765197 5.959475566150178E-4 0.004171632896305125 0.005363528009535161 0.012514898688915376 0.0029797377830750892 5.959475566150178E-4 0.0017878426698450535 0.0029797377830750892 5.959475566150178E-4 0.0017878426698450535 0.0017878426698450535 5.959475566150178E-4 0.0017878426698450535 0.014898688915375448 5.959475566150178E-4 5.959475566150178E-4 0.0029797377830750892 0.0029797377830750892 0.0017878426698450535 5.959475566150178E-4 0.005363528009535161 5.959475566150178E-4 5.959475566150178E-4 0.0029797377830750892 5.959475566150178E-4 5.959475566150178E-4 5.959475566150178E-4 0.0017878426698450535 0.0017878426698450535 0.005363528009535161 5.959475566150178E-4 0.005363528009535161 5.959475566150178E-4 5.959475566150178E-4 0.0017878426698450535 5.959475566150178E-4 0.0017878426698450535 0.0017878426698450535 0.0017878426698450535 0.0017878426698450535 0.0017878426698450535 5.959475566150178E-4 0.0017878426698450535 0.0017878426698450535 0.004171632896305125 5.959475566150178E-4 5.959475566150178E-4 5.959475566150178E-4 5.959475566150178E-4 0.0017878426698450535 0.0017878426698450535 0.0017878426698450535 
0.01544943820224719 0.5154494382022472 0.021067415730337078 0.05758426966292135 0.037921348314606744 0.009831460674157303 0.06601123595505617 0.0014044943820224719 0.007022471910112359 0.009831460674157303 0.0014044943820224719 0.026685393258426966 0.0014044943820224719 0.004213483146067416 0.0014044943820224719 0.0014044943820224719 0.004213483146067416 0.004213483146067416 0.004213483146067416 0.018258426966292134 0.007022471910112359 0.0014044943820224719 0.0014044943820224719 0.009831460674157303 0.007022471910112359 0.0014044943820224719 0.004213483146067416 0.0014044943820224719 0.004213483146067416 0.0014044943820224719 0.0014044943820224719 0.004213483146067416 0.004213483146067416 0.004213483146067416 0.004213483146067416 0.0014044943820224719 0.0014044943820224719 0.007022471910112359 0.007022471910112359 0.004213483146067416 0.0014044943820224719 0.0014044943820224719 0.009831460674157303 0.0014044943820224719 0.009831460674157303 0.004213483146067416 0.004213483146067416 0.0014044943820224719 0.004213483146067416 0.004213483146067416 0.0014044943820224719 0.0014044943820224719 0.0014044943820224719 0.009831460674157303 0.0014044943820224719 0.0014044943820224719 0.007022471910112359 0.004213483146067416 0.0014044943820224719 0.0014044943820224719 0.007022471910112359 0.004213483146067416 0.0014044943820224719 0.004213483146067416 0.004213483146067416 0.004213483146067416 0.004213483146067416 0.004213483146067416 0.0014044943820224719 0.0014044943820224719 0.0014044943820224719 0.0014044943820224719 
0.016666666666666666 0.6566666666666666 0.03 0.016666666666666666 0.016666666666666666 0.0033333333333333335 0.01 0.0033333333333333335 0.01 0.0033333333333333335 0.0033333333333333335 0.0033333333333333335 0.0033333333333333335 0.0033333333333333335 0.0033333333333333335 0.0033333333333333335 0.0033333333333333335 0.0033333333333333335 0.0033333333333333335 0.0033333333333333335 0.0033333333333333335 0.0033333333333333335 0.0033333333333333335 0.0033333333333333335 0.0033333333333333335 0.023333333333333334 0.0033333333333333335 0.0033333333333333335 0.0033333333333333335 0.0033333333333333335 0.0033333333333333335 0.0033333333333333335 0.0033333333333333335 0.0033333333333333335 0.0033333333333333335 0.0033333333333333335 0.0033333333333333335 0.0033333333333333335 0.0033333333333333335 0.0033333333333333335 0.01 0.0033333333333333335 0.0033333333333333335 0.0033333333333333335 0.0033333333333333335 0.0033333333333333335 0.0033333333333333335 0.0033333333333333335 0.0033333333333333335 0.0033333333333333335 0.0033333333333333335 0.0033333333333333335 0.0033333333333333335 0.0033333333333333335 0.0033333333333333335 0.0033333333333333335 0.0033333333333333335 0.0033333333333333335 0.0033333333333333335 0.0033333333333333335 0.0033333333333333335 0.0033333333333333335 0.0033333333333333335 0.0033333333333333335 0.0033333333333333335 0.0033333333333333335 0.0033333333333333335 0.0033333333333333335 0.0033333333333333335 0.0033333333333333335 0.0033333333333333335 0.0033333333333333335 
</TABLE>
</DEFINITION>
<DEFINITION>
<FOR>company_size</FOR>
	<GIVEN>experience_level</GIVEN>
<TABLE>
0.08242303872889771 0.01727904667328699 0.9002979145978153 
0.16718458669981354 0.06277190801740211 0.7700435052827843 
0.31259720062208396 0.15396578538102643 0.5334370139968896 
0.11688311688311688 0.05627705627705628 0.8268398268398268 
</TABLE>
</DEFINITION>
<DEFINITION>
<FOR>cluster</FOR>
	<GIVEN>experience_level</GIVEN>
<TABLE>
0.5547169811320755 0.20278053624627607 0.24250248262164847 
0.3660658794282163 0.5761342448725917 0.057799875699192045 
0.2223950233281493 0.7387247278382582 0.038880248833592534 
0.3939393939393939 0.08225108225108226 0.5238095238095238 
</TABLE>
</DEFINITION>
</NETWORK>
</BIF>
