<?xml version="1.0"?>
<!-- DTD for the XMLBIF 0.3 format -->
<!DOCTYPE BIF [
	<!ELEMENT BIF ( NETWORK )*>
	      <!ATTLIST BIF VERSION CDATA #REQUIRED>
	<!ELEMENT NETWORK ( NAME, ( PROPERTY | VARIABLE | DEFINITION )* )>
	<!ELEMENT NAME (#PCDATA)>
	<!ELEMENT VARIABLE ( NAME, ( OUTCOME |  PROPERTY )* ) >
	      <!ATTLIST VARIABLE TYPE (nature|decision|utility) "nature">
	<!ELEMENT OUTCOME (#PCDATA)>
	<!ELEMENT DEFINITION ( FOR | GIVEN | TABLE | PROPERTY )* >
	<!ELEMENT FOR (#PCDATA)>
	<!ELEMENT GIVEN (#PCDATA)>
	<!ELEMENT TABLE (#PCDATA)>
	<!ELEMENT PROPERTY (#PCDATA)>
]>


<BIF VERSION="0.3">
<NETWORK>
<NAME>ds_salaries_usd+clusters-weka.filters.supervised.attribute.Discretize-Rfirst-last-precision6-weka.filters.unsupervised.attribute.ReplaceMissingValues</NAME>
<VARIABLE TYPE="nature">
	<NAME>experience_level</NAME>
	<OUTCOME>SE</OUTCOME>
	<OUTCOME>MI</OUTCOME>
	<OUTCOME>EN</OUTCOME>
	<OUTCOME>EX</OUTCOME>
	<PROPERTY>position = (119,0)</PROPERTY>
</VARIABLE>
<VARIABLE TYPE="nature">
	<NAME>job_title</NAME>
	<OUTCOME>Principal Data Scientist</OUTCOME>
	<OUTCOME>ML Engineer</OUTCOME>
	<OUTCOME>Data Scientist</OUTCOME>
	<OUTCOME>Applied Scientist</OUTCOME>
	<OUTCOME>Data Analyst</OUTCOME>
	<OUTCOME>Data Modeler</OUTCOME>
	<OUTCOME>Research Engineer</OUTCOME>
	<OUTCOME>Analytics Engineer</OUTCOME>
	<OUTCOME>Business Intelligence Engineer</OUTCOME>
	<OUTCOME>Machine Learning Engineer</OUTCOME>
	<OUTCOME>Data Strategist</OUTCOME>
	<OUTCOME>Data Engineer</OUTCOME>
	<OUTCOME>Computer Vision Engineer</OUTCOME>
	<OUTCOME>Data Quality Analyst</OUTCOME>
	<OUTCOME>Compliance Data Analyst</OUTCOME>
	<OUTCOME>Data Architect</OUTCOME>
	<OUTCOME>Applied Machine Learning Engineer</OUTCOME>
	<OUTCOME>AI Developer</OUTCOME>
	<OUTCOME>Research Scientist</OUTCOME>
	<OUTCOME>Data Analytics Manager</OUTCOME>
	<OUTCOME>Business Data Analyst</OUTCOME>
	<OUTCOME>Applied Data Scientist</OUTCOME>
	<OUTCOME>Staff Data Analyst</OUTCOME>
	<OUTCOME>ETL Engineer</OUTCOME>
	<OUTCOME>Data DevOps Engineer</OUTCOME>
	<OUTCOME>Head of Data</OUTCOME>
	<OUTCOME>Data Science Manager</OUTCOME>
	<OUTCOME>Data Manager</OUTCOME>
	<OUTCOME>Machine Learning Researcher</OUTCOME>
	<OUTCOME>Big Data Engineer</OUTCOME>
	<OUTCOME>Data Specialist</OUTCOME>
	<OUTCOME>Lead Data Analyst</OUTCOME>
	<OUTCOME>BI Data Engineer</OUTCOME>
	<OUTCOME>Director of Data Science</OUTCOME>
	<OUTCOME>Machine Learning Scientist</OUTCOME>
	<OUTCOME>MLOps Engineer</OUTCOME>
	<OUTCOME>AI Scientist</OUTCOME>
	<OUTCOME>Autonomous Vehicle Technician</OUTCOME>
	<OUTCOME>Applied Machine Learning Scientist</OUTCOME>
	<OUTCOME>Lead Data Scientist</OUTCOME>
	<OUTCOME>Cloud Database Engineer</OUTCOME>
	<OUTCOME>Financial Data Analyst</OUTCOME>
	<OUTCOME>Data Infrastructure Engineer</OUTCOME>
	<OUTCOME>Software Data Engineer</OUTCOME>
	<OUTCOME>AI Programmer</OUTCOME>
	<OUTCOME>Data Operations Engineer</OUTCOME>
	<OUTCOME>BI Developer</OUTCOME>
	<OUTCOME>Data Science Lead</OUTCOME>
	<OUTCOME>Deep Learning Researcher</OUTCOME>
	<OUTCOME>BI Analyst</OUTCOME>
	<OUTCOME>Data Science Consultant</OUTCOME>
	<OUTCOME>Data Analytics Specialist</OUTCOME>
	<OUTCOME>Machine Learning Infrastructure Engineer</OUTCOME>
	<OUTCOME>BI Data Analyst</OUTCOME>
	<OUTCOME>Head of Data Science</OUTCOME>
	<OUTCOME>Insight Analyst</OUTCOME>
	<OUTCOME>Deep Learning Engineer</OUTCOME>
	<OUTCOME>Machine Learning Software Engineer</OUTCOME>
	<OUTCOME>Big Data Architect</OUTCOME>
	<OUTCOME>Product Data Analyst</OUTCOME>
	<OUTCOME>Computer Vision Software Engineer</OUTCOME>
	<OUTCOME>Azure Data Engineer</OUTCOME>
	<OUTCOME>Marketing Data Engineer</OUTCOME>
	<OUTCOME>Data Analytics Lead</OUTCOME>
	<OUTCOME>Data Lead</OUTCOME>
	<OUTCOME>Data Science Engineer</OUTCOME>
	<OUTCOME>Machine Learning Research Engineer</OUTCOME>
	<OUTCOME>NLP Engineer</OUTCOME>
	<OUTCOME>Manager Data Management</OUTCOME>
	<OUTCOME>Machine Learning Developer</OUTCOME>
	<OUTCOME>3D Computer Vision Researcher</OUTCOME>
	<OUTCOME>Principal Machine Learning Engineer</OUTCOME>
	<OUTCOME>Data Analytics Engineer</OUTCOME>
	<OUTCOME>Data Analytics Consultant</OUTCOME>
	<OUTCOME>Data Management Specialist</OUTCOME>
	<OUTCOME>Data Science Tech Lead</OUTCOME>
	<OUTCOME>Data Scientist Lead</OUTCOME>
	<OUTCOME>Cloud Data Engineer</OUTCOME>
	<OUTCOME>Data Operations Analyst</OUTCOME>
	<OUTCOME>Marketing Data Analyst</OUTCOME>
	<OUTCOME>Power BI Developer</OUTCOME>
	<OUTCOME>Product Data Scientist</OUTCOME>
	<OUTCOME>Principal Data Architect</OUTCOME>
	<OUTCOME>Machine Learning Manager</OUTCOME>
	<OUTCOME>Lead Machine Learning Engineer</OUTCOME>
	<OUTCOME>ETL Developer</OUTCOME>
	<OUTCOME>Cloud Data Architect</OUTCOME>
	<OUTCOME>Lead Data Engineer</OUTCOME>
	<OUTCOME>Head of Machine Learning</OUTCOME>
	<OUTCOME>Principal Data Analyst</OUTCOME>
	<OUTCOME>Principal Data Engineer</OUTCOME>
	<OUTCOME>Staff Data Scientist</OUTCOME>
	<OUTCOME>Finance Data Analyst</OUTCOME>
	<PROPERTY>position = (0,96)</PROPERTY>
</VARIABLE>
<VARIABLE TYPE="nature">
	<NAME>salary_in_usd</NAME>
	<OUTCOME>-36708</OUTCOME>
	<OUTCOME>36708-38703.5</OUTCOME>
	<OUTCOME>38703.5-62863</OUTCOME>
	<OUTCOME>62863-63020</OUTCOME>
	<OUTCOME>63020-100250</OUTCOME>
	<OUTCOME>100250-165110</OUTCOME>
	<OUTCOME>+165110</OUTCOME>
	<PROPERTY>position = (119,288)</PROPERTY>
</VARIABLE>
<VARIABLE TYPE="nature">
	<NAME>employee_residence</NAME>
	<OUTCOME>ES</OUTCOME>
	<OUTCOME>US</OUTCOME>
	<OUTCOME>CA</OUTCOME>
	<OUTCOME>DE</OUTCOME>
	<OUTCOME>GB</OUTCOME>
	<OUTCOME>NG</OUTCOME>
	<OUTCOME>IN</OUTCOME>
	<OUTCOME>HK</OUTCOME>
	<OUTCOME>PT</OUTCOME>
	<OUTCOME>NL</OUTCOME>
	<OUTCOME>CH</OUTCOME>
	<OUTCOME>CF</OUTCOME>
	<OUTCOME>FR</OUTCOME>
	<OUTCOME>AU</OUTCOME>
	<OUTCOME>FI</OUTCOME>
	<OUTCOME>UA</OUTCOME>
	<OUTCOME>IE</OUTCOME>
	<OUTCOME>IL</OUTCOME>
	<OUTCOME>GH</OUTCOME>
	<OUTCOME>AT</OUTCOME>
	<OUTCOME>CO</OUTCOME>
	<OUTCOME>SG</OUTCOME>
	<OUTCOME>SE</OUTCOME>
	<OUTCOME>SI</OUTCOME>
	<OUTCOME>MX</OUTCOME>
	<OUTCOME>UZ</OUTCOME>
	<OUTCOME>BR</OUTCOME>
	<OUTCOME>TH</OUTCOME>
	<OUTCOME>HR</OUTCOME>
	<OUTCOME>PL</OUTCOME>
	<OUTCOME>KW</OUTCOME>
	<OUTCOME>VN</OUTCOME>
	<OUTCOME>CY</OUTCOME>
	<OUTCOME>AR</OUTCOME>
	<OUTCOME>AM</OUTCOME>
	<OUTCOME>BA</OUTCOME>
	<OUTCOME>KE</OUTCOME>
	<OUTCOME>GR</OUTCOME>
	<OUTCOME>MK</OUTCOME>
	<OUTCOME>LV</OUTCOME>
	<OUTCOME>RO</OUTCOME>
	<OUTCOME>PK</OUTCOME>
	<OUTCOME>IT</OUTCOME>
	<OUTCOME>MA</OUTCOME>
	<OUTCOME>LT</OUTCOME>
	<OUTCOME>BE</OUTCOME>
	<OUTCOME>AS</OUTCOME>
	<OUTCOME>IR</OUTCOME>
	<OUTCOME>HU</OUTCOME>
	<OUTCOME>SK</OUTCOME>
	<OUTCOME>CN</OUTCOME>
	<OUTCOME>CR</OUTCOME>
	<OUTCOME>TR</OUTCOME>
	<OUTCOME>CL</OUTCOME>
	<OUTCOME>PR</OUTCOME>
	<OUTCOME>DK</OUTCOME>
	<OUTCOME>BO</OUTCOME>
	<OUTCOME>PH</OUTCOME>
	<OUTCOME>DO</OUTCOME>
	<OUTCOME>EG</OUTCOME>
	<OUTCOME>ID</OUTCOME>
	<OUTCOME>AE</OUTCOME>
	<OUTCOME>MY</OUTCOME>
	<OUTCOME>JP</OUTCOME>
	<OUTCOME>EE</OUTCOME>
	<OUTCOME>HN</OUTCOME>
	<OUTCOME>TN</OUTCOME>
	<OUTCOME>CZ</OUTCOME>
	<OUTCOME>RU</OUTCOME>
	<OUTCOME>DZ</OUTCOME>
	<OUTCOME>IQ</OUTCOME>
	<OUTCOME>BG</OUTCOME>
	<OUTCOME>JE</OUTCOME>
	<OUTCOME>RS</OUTCOME>
	<OUTCOME>NZ</OUTCOME>
	<OUTCOME>MD</OUTCOME>
	<OUTCOME>LU</OUTCOME>
	<OUTCOME>MT</OUTCOME>
	<PROPERTY>position = (238,192)</PROPERTY>
</VARIABLE>
<VARIABLE TYPE="nature">
	<NAME>company_location</NAME>
	<OUTCOME>ES</OUTCOME>
	<OUTCOME>US</OUTCOME>
	<OUTCOME>CA</OUTCOME>
	<OUTCOME>DE</OUTCOME>
	<OUTCOME>GB</OUTCOME>
	<OUTCOME>NG</OUTCOME>
	<OUTCOME>IN</OUTCOME>
	<OUTCOME>HK</OUTCOME>
	<OUTCOME>NL</OUTCOME>
	<OUTCOME>CH</OUTCOME>
	<OUTCOME>CF</OUTCOME>
	<OUTCOME>FR</OUTCOME>
	<OUTCOME>FI</OUTCOME>
	<OUTCOME>UA</OUTCOME>
	<OUTCOME>IE</OUTCOME>
	<OUTCOME>IL</OUTCOME>
	<OUTCOME>GH</OUTCOME>
	<OUTCOME>CO</OUTCOME>
	<OUTCOME>SG</OUTCOME>
	<OUTCOME>AU</OUTCOME>
	<OUTCOME>SE</OUTCOME>
	<OUTCOME>SI</OUTCOME>
	<OUTCOME>MX</OUTCOME>
	<OUTCOME>BR</OUTCOME>
	<OUTCOME>PT</OUTCOME>
	<OUTCOME>RU</OUTCOME>
	<OUTCOME>TH</OUTCOME>
	<OUTCOME>HR</OUTCOME>
	<OUTCOME>VN</OUTCOME>
	<OUTCOME>EE</OUTCOME>
	<OUTCOME>AM</OUTCOME>
	<OUTCOME>BA</OUTCOME>
	<OUTCOME>KE</OUTCOME>
	<OUTCOME>GR</OUTCOME>
	<OUTCOME>MK</OUTCOME>
	<OUTCOME>LV</OUTCOME>
	<OUTCOME>RO</OUTCOME>
	<OUTCOME>PK</OUTCOME>
	<OUTCOME>IT</OUTCOME>
	<OUTCOME>MA</OUTCOME>
	<OUTCOME>PL</OUTCOME>
	<OUTCOME>AL</OUTCOME>
	<OUTCOME>AR</OUTCOME>
	<OUTCOME>LT</OUTCOME>
	<OUTCOME>AS</OUTCOME>
	<OUTCOME>CR</OUTCOME>
	<OUTCOME>IR</OUTCOME>
	<OUTCOME>BS</OUTCOME>
	<OUTCOME>HU</OUTCOME>
	<OUTCOME>AT</OUTCOME>
	<OUTCOME>SK</OUTCOME>
	<OUTCOME>TR</OUTCOME>
	<OUTCOME>PR</OUTCOME>
	<OUTCOME>DK</OUTCOME>
	<OUTCOME>BO</OUTCOME>
	<OUTCOME>PH</OUTCOME>
	<OUTCOME>BE</OUTCOME>
	<OUTCOME>ID</OUTCOME>
	<OUTCOME>EG</OUTCOME>
	<OUTCOME>AE</OUTCOME>
	<OUTCOME>LU</OUTCOME>
	<OUTCOME>MY</OUTCOME>
	<OUTCOME>HN</OUTCOME>
	<OUTCOME>CZ</OUTCOME>
	<OUTCOME>JP</OUTCOME>
	<OUTCOME>DZ</OUTCOME>
	<OUTCOME>IQ</OUTCOME>
	<OUTCOME>CN</OUTCOME>
	<OUTCOME>NZ</OUTCOME>
	<OUTCOME>CL</OUTCOME>
	<OUTCOME>MD</OUTCOME>
	<OUTCOME>MT</OUTCOME>
	<PROPERTY>position = (238,96)</PROPERTY>
</VARIABLE>
<VARIABLE TYPE="nature">
	<NAME>company_size</NAME>
	<OUTCOME>L</OUTCOME>
	<OUTCOME>S</OUTCOME>
	<OUTCOME>M</OUTCOME>
	<PROPERTY>position = (357,288)</PROPERTY>
</VARIABLE>
<VARIABLE TYPE="nature">
	<NAME>cluster</NAME>
	<OUTCOME>0</OUTCOME>
	<OUTCOME>1</OUTCOME>
	<OUTCOME>2</OUTCOME>
	<PROPERTY>position = (119,384)</PROPERTY>
</VARIABLE>
<DEFINITION>
<FOR>experience_level</FOR>
<TABLE>
0.6701731025299601 0.21398135818908123 0.08535286284953396 0.030492676431424767 
</TABLE>
</DEFINITION>
<DEFINITION>
<FOR>job_title</FOR>
	<GIVEN>experience_level</GIVEN>
<TABLE>
0.0025365853658536586 0.008390243902439025 0.23746341463414633 0.02048780487804878 0.14848780487804877 9.75609756097561E-4 0.00878048780487805 0.03180487804878049 0.0017560975609756098 0.08175609756097561 9.75609756097561E-4 0.28039024390243905 0.004878048780487805 0.0025365853658536586 1.951219512195122E-4 0.03609756097560975 1.951219512195122E-4 0.0013658536585365853 0.019317073170731707 0.004878048780487805 5.853658536585366E-4 0.0013658536585365853 1.951219512195122E-4 1.951219512195122E-4 5.853658536585366E-4 0.0013658536585365853 0.017756097560975608 0.008 5.853658536585366E-4 0.0013658536585365853 0.0037073170731707315 5.853658536585366E-4 1.951219512195122E-4 0.0013658536585365853 0.00448780487804878 1.951219512195122E-4 0.0013658536585365853 1.951219512195122E-4 0.0017560975609756098 0.002926829268292683 0.0021463414634146343 1.951219512195122E-4 9.75609756097561E-4 5.853658536585366E-4 1.951219512195122E-4 0.0017560975609756098 0.00448780487804878 0.0021463414634146343 5.853658536585366E-4 0.0021463414634146343 0.00448780487804878 9.75609756097561E-4 0.002926829268292683 5.853658536585366E-4 1.951219512195122E-4 1.951219512195122E-4 1.951219512195122E-4 0.0037073170731707315 9.75609756097561E-4 1.951219512195122E-4 5.853658536585366E-4 5.853658536585366E-4 1.951219512195122E-4 5.853658536585366E-4 9.75609756097561E-4 0.0017560975609756098 1.951219512195122E-4 0.0017560975609756098 5.853658536585366E-4 5.853658536585366E-4 5.853658536585366E-4 5.853658536585366E-4 9.75609756097561E-4 1.951219512195122E-4 5.853658536585366E-4 5.853658536585366E-4 5.853658536585366E-4 9.75609756097561E-4 0.0017560975609756098 9.75609756097561E-4 1.951219512195122E-4 5.853658536585366E-4 5.853658536585366E-4 0.0013658536585365853 0.0013658536585365853 0.0033170731707317072 5.853658536585366E-4 0.0017560975609756098 1.951219512195122E-4 5.853658536585366E-4 9.75609756097561E-4 5.853658536585366E-4 5.853658536585366E-4 
0.0017657445556209534 0.01353737492642731 0.19011183048852265 5.885815185403178E-4 0.19717480871100648 5.885815185403178E-4 0.006474396703943496 0.015891701000588582 5.885815185403178E-4 0.07004120070629782 5.885815185403178E-4 0.24190700412007063 0.002942907592701589 5.885815185403178E-4 5.885815185403178E-4 0.008828722778104767 0.002942907592701589 0.002942907592701589 0.026486168334314303 0.010005885815185403 0.010005885815185403 0.00529723366686286 5.885815185403178E-4 0.002942907592701589 5.885815185403178E-4 0.0017657445556209534 0.010005885815185403 0.007651559741024131 0.006474396703943496 0.00529723366686286 0.00529723366686286 0.00529723366686286 5.885815185403178E-4 5.885815185403178E-4 0.01353737492642731 0.00529723366686286 0.006474396703943496 0.0017657445556209534 0.007651559741024131 0.002942907592701589 5.885815185403178E-4 0.002942907592701589 0.00529723366686286 0.0017657445556209534 5.885815185403178E-4 0.007651559741024131 5.885815185403178E-4 0.004120070629782225 5.885815185403178E-4 0.002942907592701589 0.006474396703943496 5.885815185403178E-4 0.00529723366686286 0.008828722778104767 0.002942907592701589 0.002942907592701589 0.00529723366686286 5.885815185403178E-4 5.885815185403178E-4 0.00529723366686286 0.0017657445556209534 5.885815185403178E-4 5.885815185403178E-4 0.0017657445556209534 5.885815185403178E-4 0.0017657445556209534 0.0017657445556209534 0.002942907592701589 5.885815185403178E-4 0.0017657445556209534 0.0017657445556209534 5.885815185403178E-4 0.002942907592701589 0.0017657445556209534 5.885815185403178E-4 5.885815185403178E-4 0.0017657445556209534 0.0017657445556209534 5.885815185403178E-4 5.885815185403178E-4 5.885815185403178E-4 5.885815185403178E-4 5.885815185403178E-4 5.885815185403178E-4 5.885815185403178E-4 0.002942907592701589 5.885815185403178E-4 0.0017657445556209534 5.885815185403178E-4 0.0017657445556209534 5.885815185403178E-4 5.885815185403178E-4 5.885815185403178E-4 
0.001364256480218281 0.0068212824010914054 0.16234652114597545 0.017735334242837655 0.17326057298772168 0.001364256480218281 0.0286493860845839 0.004092769440654843 0.001364256480218281 0.058663028649386086 0.001364256480218281 0.18144611186903137 0.01227830832196453 0.004092769440654843 0.004092769440654843 0.001364256480218281 0.001364256480218281 0.017735334242837655 0.02592087312414734 0.001364256480218281 0.017735334242837655 0.009549795361527967 0.001364256480218281 0.001364256480218281 0.001364256480218281 0.001364256480218281 0.001364256480218281 0.0068212824010914054 0.001364256480218281 0.01227830832196453 0.004092769440654843 0.001364256480218281 0.004092769440654843 0.001364256480218281 0.0068212824010914054 0.001364256480218281 0.020463847203274217 0.004092769440654843 0.0068212824010914054 0.001364256480218281 0.001364256480218281 0.004092769440654843 0.001364256480218281 0.001364256480218281 0.0068212824010914054 0.001364256480218281 0.0068212824010914054 0.001364256480218281 0.001364256480218281 0.0068212824010914054 0.020463847203274217 0.001364256480218281 0.001364256480218281 0.017735334242837655 0.001364256480218281 0.001364256480218281 0.0068212824010914054 0.004092769440654843 0.001364256480218281 0.004092769440654843 0.009549795361527967 0.001364256480218281 0.004092769440654843 0.001364256480218281 0.001364256480218281 0.001364256480218281 0.009549795361527967 0.001364256480218281 0.001364256480218281 0.015006821282401092 0.0068212824010914054 0.001364256480218281 0.0068212824010914054 0.004092769440654843 0.001364256480218281 0.001364256480218281 0.001364256480218281 0.001364256480218281 0.001364256480218281 0.001364256480218281 0.004092769440654843 0.001364256480218281 0.001364256480218281 0.001364256480218281 0.001364256480218281 0.001364256480218281 0.001364256480218281 0.001364256480218281 0.001364256480218281 0.001364256480218281 0.001364256480218281 0.001364256480218281 0.001364256480218281 
0.009345794392523364 0.003115264797507788 0.0778816199376947 0.003115264797507788 0.01557632398753894 0.003115264797507788 0.003115264797507788 0.0529595015576324 0.003115264797507788 0.003115264797507788 0.003115264797507788 0.32087227414330216 0.003115264797507788 0.003115264797507788 0.003115264797507788 0.01557632398753894 0.003115264797507788 0.003115264797507788 0.009345794392523364 0.01557632398753894 0.003115264797507788 0.003115264797507788 0.009345794392523364 0.003115264797507788 0.003115264797507788 0.040498442367601244 0.03426791277258567 0.009345794392523364 0.003115264797507788 0.003115264797507788 0.003115264797507788 0.003115264797507788 0.003115264797507788 0.0529595015576324 0.01557632398753894 0.003115264797507788 0.009345794392523364 0.003115264797507788 0.003115264797507788 0.003115264797507788 0.003115264797507788 0.003115264797507788 0.003115264797507788 0.003115264797507788 0.003115264797507788 0.003115264797507788 0.003115264797507788 0.003115264797507788 0.003115264797507788 0.003115264797507788 0.009345794392523364 0.003115264797507788 0.003115264797507788 0.009345794392523364 0.04672897196261682 0.003115264797507788 0.003115264797507788 0.003115264797507788 0.003115264797507788 0.003115264797507788 0.003115264797507788 0.003115264797507788 0.003115264797507788 0.003115264797507788 0.003115264797507788 0.003115264797507788 0.003115264797507788 0.003115264797507788 0.003115264797507788 0.003115264797507788 0.003115264797507788 0.003115264797507788 0.003115264797507788 0.003115264797507788 0.003115264797507788 0.003115264797507788 0.003115264797507788 0.003115264797507788 0.003115264797507788 0.003115264797507788 0.003115264797507788 0.003115264797507788 0.003115264797507788 0.003115264797507788 0.003115264797507788 0.003115264797507788 0.003115264797507788 0.009345794392523364 0.009345794392523364 0.003115264797507788 0.003115264797507788 0.003115264797507788 0.003115264797507788 
</TABLE>
</DEFINITION>
<DEFINITION>
<FOR>salary_in_usd</FOR>
	<GIVEN>experience_level</GIVEN>
	<GIVEN>employee_residence</GIVEN>
<TABLE>
0.009009009009009009 0.3153153153153153 0.44144144144144143 0.009009009009009009 0.11711711711711711 0.009009009009009009 0.0990990990990991 
6.647462884998893E-4 0.0015510746731664082 0.005982716596499003 0.007312209173498781 0.10037668956348327 0.48238422335475295 0.4017283403500997 
0.023622047244094488 0.007874015748031496 0.03937007874015748 0.007874015748031496 0.16535433070866143 0.41732283464566927 0.33858267716535434 
0.02702702702702703 0.02702702702702703 0.02702702702702703 0.02702702702702703 0.35135135135135137 0.24324324324324326 0.2972972972972973 
0.012987012987012988 0.012987012987012988 0.16883116883116883 0.012987012987012988 0.2987012987012987 0.37662337662337664 0.11688311688311688 
0.09090909090909091 0.09090909090909091 0.2727272727272727 0.09090909090909091 0.09090909090909091 0.09090909090909091 0.2727272727272727 
0.2413793103448276 0.10344827586206896 0.3103448275862069 0.034482758620689655 0.2413793103448276 0.034482758620689655 0.034482758620689655 
0.14285714285714285 0.14285714285714285 0.14285714285714285 0.14285714285714285 0.14285714285714285 0.14285714285714285 0.14285714285714285 
0.10344827586206896 0.1724137931034483 0.1724137931034483 0.034482758620689655 0.3793103448275862 0.10344827586206896 0.034482758620689655 
0.06666666666666667 0.06666666666666667 0.3333333333333333 0.06666666666666667 0.2 0.2 0.06666666666666667 
0.14285714285714285 0.14285714285714285 0.14285714285714285 0.14285714285714285 0.14285714285714285 0.14285714285714285 0.14285714285714285 
0.09090909090909091 0.09090909090909091 0.45454545454545453 0.09090909090909091 0.09090909090909091 0.09090909090909091 0.09090909090909091 
0.03225806451612903 0.03225806451612903 0.2903225806451613 0.03225806451612903 0.41935483870967744 0.16129032258064516 0.03225806451612903 
0.09090909090909091 0.09090909090909091 0.09090909090909091 0.09090909090909091 0.2727272727272727 0.2727272727272727 0.09090909090909091 
0.1111111111111111 0.1111111111111111 0.1111111111111111 0.1111111111111111 0.3333333333333333 0.1111111111111111 0.1111111111111111 
0.07692307692307693 0.07692307692307693 0.38461538461538464 0.07692307692307693 0.07692307692307693 0.23076923076923078 0.07692307692307693 
0.058823529411764705 0.058823529411764705 0.058823529411764705 0.058823529411764705 0.17647058823529413 0.29411764705882354 0.29411764705882354 
0.1111111111111111 0.1111111111111111 0.1111111111111111 0.1111111111111111 0.1111111111111111 0.1111111111111111 0.3333333333333333 
0.14285714285714285 0.14285714285714285 0.14285714285714285 0.14285714285714285 0.14285714285714285 0.14285714285714285 0.14285714285714285 
0.1111111111111111 0.1111111111111111 0.1111111111111111 0.1111111111111111 0.3333333333333333 0.1111111111111111 0.1111111111111111 
0.07692307692307693 0.07692307692307693 0.23076923076923078 0.07692307692307693 0.23076923076923078 0.23076923076923078 0.07692307692307693 
0.14285714285714285 0.14285714285714285 0.14285714285714285 0.14285714285714285 0.14285714285714285 0.14285714285714285 0.14285714285714285 
0.14285714285714285 0.14285714285714285 0.14285714285714285 0.14285714285714285 0.14285714285714285 0.14285714285714285 0.14285714285714285 
0.1111111111111111 0.1111111111111111 0.1111111111111111 0.1111111111111111 0.1111111111111111 0.3333333333333333 0.1111111111111111 
0.17647058823529413 0.058823529411764705 0.058823529411764705 0.058823529411764705 0.17647058823529413 0.17647058823529413 0.29411764705882354 
0.14285714285714285 0.14285714285714285 0.14285714285714285 0.14285714285714285 0.14285714285714285 0.14285714285714285 0.14285714285714285 
0.3333333333333333 0.06666666666666667 0.06666666666666667 0.06666666666666667 0.2 0.2 0.06666666666666667 
0.3333333333333333 0.1111111111111111 0.1111111111111111 0.1111111111111111 0.1111111111111111 0.1111111111111111 0.1111111111111111 
0.1111111111111111 0.1111111111111111 0.3333333333333333 0.1111111111111111 0.1111111111111111 0.1111111111111111 0.1111111111111111 
0.1111111111111111 0.1111111111111111 0.1111111111111111 0.1111111111111111 0.1111111111111111 0.3333333333333333 0.1111111111111111 
0.14285714285714285 0.14285714285714285 0.14285714285714285 0.14285714285714285 0.14285714285714285 0.14285714285714285 0.14285714285714285 
0.1111111111111111 0.1111111111111111 0.3333333333333333 0.1111111111111111 0.1111111111111111 0.1111111111111111 0.1111111111111111 
0.1111111111111111 0.1111111111111111 0.1111111111111111 0.1111111111111111 0.3333333333333333 0.1111111111111111 0.1111111111111111 
0.09090909090909091 0.09090909090909091 0.45454545454545453 0.09090909090909091 0.09090909090909091 0.09090909090909091 0.09090909090909091 
0.14285714285714285 0.14285714285714285 0.14285714285714285 0.14285714285714285 0.14285714285714285 0.14285714285714285 0.14285714285714285 
0.14285714285714285 0.14285714285714285 0.14285714285714285 0.14285714285714285 0.14285714285714285 0.14285714285714285 0.14285714285714285 
0.14285714285714285 0.14285714285714285 0.14285714285714285 0.14285714285714285 0.14285714285714285 0.14285714285714285 0.14285714285714285 
0.07692307692307693 0.07692307692307693 0.23076923076923078 0.07692307692307693 0.38461538461538464 0.07692307692307693 0.07692307692307693 
0.14285714285714285 0.14285714285714285 0.14285714285714285 0.14285714285714285 0.14285714285714285 0.14285714285714285 0.14285714285714285 
0.06666666666666667 0.3333333333333333 0.06666666666666667 0.06666666666666667 0.3333333333333333 0.06666666666666667 0.06666666666666667 
0.1111111111111111 0.1111111111111111 0.1111111111111111 0.1111111111111111 0.3333333333333333 0.1111111111111111 0.1111111111111111 
0.14285714285714285 0.14285714285714285 0.14285714285714285 0.14285714285714285 0.14285714285714285 0.14285714285714285 0.14285714285714285 
0.1111111111111111 0.1111111111111111 0.1111111111111111 0.1111111111111111 0.3333333333333333 0.1111111111111111 0.1111111111111111 
0.14285714285714285 0.14285714285714285 0.14285714285714285 0.14285714285714285 0.14285714285714285 0.14285714285714285 0.14285714285714285 
0.14285714285714285 0.14285714285714285 0.14285714285714285 0.14285714285714285 0.14285714285714285 0.14285714285714285 0.14285714285714285 
0.1111111111111111 0.1111111111111111 0.1111111111111111 0.1111111111111111 0.3333333333333333 0.1111111111111111 0.1111111111111111 
0.14285714285714285 0.14285714285714285 0.14285714285714285 0.14285714285714285 0.14285714285714285 0.14285714285714285 0.14285714285714285 
0.14285714285714285 0.14285714285714285 0.14285714285714285 0.14285714285714285 0.14285714285714285 0.14285714285714285 0.14285714285714285 
0.14285714285714285 0.14285714285714285 0.14285714285714285 0.14285714285714285 0.14285714285714285 0.14285714285714285 0.14285714285714285 
0.3333333333333333 0.1111111111111111 0.1111111111111111 0.1111111111111111 0.1111111111111111 0.1111111111111111 0.1111111111111111 
0.14285714285714285 0.14285714285714285 0.14285714285714285 0.14285714285714285 0.14285714285714285 0.14285714285714285 0.14285714285714285 
0.14285714285714285 0.14285714285714285 0.14285714285714285 0.14285714285714285 0.14285714285714285 0.14285714285714285 0.14285714285714285 
0.3333333333333333 0.1111111111111111 0.1111111111111111 0.1111111111111111 0.1111111111111111 0.1111111111111111 0.1111111111111111 
0.14285714285714285 0.14285714285714285 0.14285714285714285 0.14285714285714285 0.14285714285714285 0.14285714285714285 0.14285714285714285 
0.058823529411764705 0.058823529411764705 0.058823529411764705 0.058823529411764705 0.058823529411764705 0.4117647058823529 0.29411764705882354 
0.14285714285714285 0.14285714285714285 0.14285714285714285 0.14285714285714285 0.14285714285714285 0.14285714285714285 0.14285714285714285 
0.14285714285714285 0.14285714285714285 0.14285714285714285 0.14285714285714285 0.14285714285714285 0.14285714285714285 0.14285714285714285 
0.1111111111111111 0.1111111111111111 0.3333333333333333 0.1111111111111111 0.1111111111111111 0.1111111111111111 0.1111111111111111 
0.14285714285714285 0.14285714285714285 0.14285714285714285 0.14285714285714285 0.14285714285714285 0.14285714285714285 0.14285714285714285 
0.14285714285714285 0.14285714285714285 0.14285714285714285 0.14285714285714285 0.14285714285714285 0.14285714285714285 0.14285714285714285 
0.14285714285714285 0.14285714285714285 0.14285714285714285 0.14285714285714285 0.14285714285714285 0.14285714285714285 0.14285714285714285 
0.09090909090909091 0.09090909090909091 0.09090909090909091 0.09090909090909091 0.2727272727272727 0.2727272727272727 0.09090909090909091 
0.1111111111111111 0.1111111111111111 0.1111111111111111 0.1111111111111111 0.1111111111111111 0.1111111111111111 0.3333333333333333 
0.09090909090909091 0.09090909090909091 0.09090909090909091 0.09090909090909091 0.09090909090909091 0.09090909090909091 0.45454545454545453 
0.14285714285714285 0.14285714285714285 0.14285714285714285 0.14285714285714285 0.14285714285714285 0.14285714285714285 0.14285714285714285 
0.14285714285714285 0.14285714285714285 0.14285714285714285 0.14285714285714285 0.14285714285714285 0.14285714285714285 0.14285714285714285 
0.14285714285714285 0.14285714285714285 0.14285714285714285 0.14285714285714285 0.14285714285714285 0.14285714285714285 0.14285714285714285 
0.14285714285714285 0.14285714285714285 0.14285714285714285 0.14285714285714285 0.14285714285714285 0.14285714285714285 0.14285714285714285 
0.1111111111111111 0.1111111111111111 0.3333333333333333 0.1111111111111111 0.1111111111111111 0.1111111111111111 0.1111111111111111 
0.14285714285714285 0.14285714285714285 0.14285714285714285 0.14285714285714285 0.14285714285714285 0.14285714285714285 0.14285714285714285 
0.14285714285714285 0.14285714285714285 0.14285714285714285 0.14285714285714285 0.14285714285714285 0.14285714285714285 0.14285714285714285 
0.1111111111111111 0.1111111111111111 0.1111111111111111 0.1111111111111111 0.3333333333333333 0.1111111111111111 0.1111111111111111 
0.14285714285714285 0.14285714285714285 0.14285714285714285 0.14285714285714285 0.14285714285714285 0.14285714285714285 0.14285714285714285 
0.14285714285714285 0.14285714285714285 0.14285714285714285 0.14285714285714285 0.14285714285714285 0.14285714285714285 0.14285714285714285 
0.1111111111111111 0.1111111111111111 0.1111111111111111 0.1111111111111111 0.1111111111111111 0.3333333333333333 0.1111111111111111 
0.14285714285714285 0.14285714285714285 0.14285714285714285 0.14285714285714285 0.14285714285714285 0.14285714285714285 0.14285714285714285 
0.14285714285714285 0.14285714285714285 0.14285714285714285 0.14285714285714285 0.14285714285714285 0.14285714285714285 0.14285714285714285 
0.14285714285714285 0.14285714285714285 0.14285714285714285 0.14285714285714285 0.14285714285714285 0.14285714285714285 0.14285714285714285 
0.058823529411764705 0.09803921568627451 0.4117647058823529 0.0196078431372549 0.3333333333333333 0.058823529411764705 0.0196078431372549 
0.009307135470527405 0.001034126163391934 0.038262668045501554 0.001034126163391934 0.2678386763185109 0.5263702171664943 0.15615305067218202 
0.02702702702702703 0.02702702702702703 0.02702702702702703 0.02702702702702703 0.6756756756756757 0.13513513513513514 0.08108108108108109 
0.024390243902439025 0.024390243902439025 0.3170731707317073 0.024390243902439025 0.5121951219512195 0.07317073170731707 0.024390243902439025 
0.004149377593360996 0.02074688796680498 0.2946058091286307 0.004149377593360996 0.44398340248962653 0.2033195020746888 0.029045643153526972 
0.1111111111111111 0.1111111111111111 0.3333333333333333 0.1111111111111111 0.1111111111111111 0.1111111111111111 0.1111111111111111 
0.7464788732394366 0.014084507042253521 0.1267605633802817 0.014084507042253521 0.04225352112676056 0.014084507042253521 0.04225352112676056 
0.09090909090909091 0.09090909090909091 0.09090909090909091 0.09090909090909091 0.45454545454545453 0.09090909090909091 0.09090909090909091 
0.07692307692307693 0.07692307692307693 0.5384615384615384 0.07692307692307693 0.07692307692307693 0.07692307692307693 0.07692307692307693 
0.047619047619047616 0.047619047619047616 0.23809523809523808 0.047619047619047616 0.42857142857142855 0.14285714285714285 0.047619047619047616 
0.09090909090909091 0.09090909090909091 0.09090909090909091 0.09090909090909091 0.09090909090909091 0.45454545454545453 0.09090909090909091 
0.14285714285714285 0.14285714285714285 0.14285714285714285 0.14285714285714285 0.14285714285714285 0.14285714285714285 0.14285714285714285 
0.02564102564102564 0.02564102564102564 0.48717948717948717 0.02564102564102564 0.3333333333333333 0.07692307692307693 0.02564102564102564 
0.058823529411764705 0.058823529411764705 0.29411764705882354 0.058823529411764705 0.4117647058823529 0.058823529411764705 0.058823529411764705 
0.1111111111111111 0.1111111111111111 0.1111111111111111 0.1111111111111111 0.3333333333333333 0.1111111111111111 0.1111111111111111 
0.14285714285714285 0.14285714285714285 0.14285714285714285 0.14285714285714285 0.14285714285714285 0.14285714285714285 0.14285714285714285 
0.09090909090909091 0.09090909090909091 0.09090909090909091 0.09090909090909091 0.45454545454545453 0.09090909090909091 0.09090909090909091 
0.14285714285714285 0.14285714285714285 0.14285714285714285 0.14285714285714285 0.14285714285714285 0.14285714285714285 0.14285714285714285 
0.3333333333333333 0.1111111111111111 0.1111111111111111 0.1111111111111111 0.1111111111111111 0.1111111111111111 0.1111111111111111 
0.06666666666666667 0.06666666666666667 0.3333333333333333 0.06666666666666667 0.3333333333333333 0.06666666666666667 0.06666666666666667 
0.14285714285714285 0.14285714285714285 0.14285714285714285 0.14285714285714285 0.14285714285714285 0.14285714285714285 0.14285714285714285 
0.06666666666666667 0.06666666666666667 0.06666666666666667 0.06666666666666667 0.4666666666666667 0.2 0.06666666666666667 
0.14285714285714285 0.14285714285714285 0.14285714285714285 0.14285714285714285 0.14285714285714285 0.14285714285714285 0.14285714285714285 
0.23076923076923078 0.07692307692307693 0.23076923076923078 0.07692307692307693 0.23076923076923078 0.07692307692307693 0.07692307692307693 
0.3333333333333333 0.06666666666666667 0.2 0.06666666666666667 0.2 0.06666666666666667 0.06666666666666667 
0.14285714285714285 0.14285714285714285 0.14285714285714285 0.14285714285714285 0.14285714285714285 0.14285714285714285 0.14285714285714285 
0.18518518518518517 0.037037037037037035 0.3333333333333333 0.037037037037037035 0.3333333333333333 0.037037037037037035 0.037037037037037035 
0.3333333333333333 0.1111111111111111 0.1111111111111111 0.1111111111111111 0.1111111111111111 0.1111111111111111 0.1111111111111111 
0.09090909090909091 0.09090909090909091 0.09090909090909091 0.09090909090909091 0.2727272727272727 0.2727272727272727 0.09090909090909091 
0.3333333333333333 0.06666666666666667 0.3333333333333333 0.06666666666666667 0.06666666666666667 0.06666666666666667 0.06666666666666667 
0.14285714285714285 0.14285714285714285 0.14285714285714285 0.14285714285714285 0.14285714285714285 0.14285714285714285 0.14285714285714285 
0.1111111111111111 0.3333333333333333 0.1111111111111111 0.1111111111111111 0.1111111111111111 0.1111111111111111 0.1111111111111111 
0.14285714285714285 0.14285714285714285 0.14285714285714285 0.14285714285714285 0.14285714285714285 0.14285714285714285 0.14285714285714285 
0.14285714285714285 0.14285714285714285 0.14285714285714285 0.14285714285714285 0.14285714285714285 0.14285714285714285 0.14285714285714285 
0.1111111111111111 0.1111111111111111 0.3333333333333333 0.1111111111111111 0.1111111111111111 0.1111111111111111 0.1111111111111111 
0.14285714285714285 0.14285714285714285 0.14285714285714285 0.14285714285714285 0.14285714285714285 0.14285714285714285 0.14285714285714285 
0.1111111111111111 0.1111111111111111 0.1111111111111111 0.1111111111111111 0.3333333333333333 0.1111111111111111 0.1111111111111111 
0.16129032258064516 0.03225806451612903 0.3548387096774194 0.03225806451612903 0.3548387096774194 0.03225806451612903 0.03225806451612903 
0.14285714285714285 0.14285714285714285 0.14285714285714285 0.14285714285714285 0.14285714285714285 0.14285714285714285 0.14285714285714285 
0.14285714285714285 0.14285714285714285 0.14285714285714285 0.14285714285714285 0.14285714285714285 0.14285714285714285 0.14285714285714285 
0.2727272727272727 0.09090909090909091 0.2727272727272727 0.09090909090909091 0.09090909090909091 0.09090909090909091 0.09090909090909091 
0.45454545454545453 0.09090909090909091 0.09090909090909091 0.09090909090909091 0.09090909090909091 0.09090909090909091 0.09090909090909091 
0.2727272727272727 0.09090909090909091 0.2727272727272727 0.09090909090909091 0.09090909090909091 0.09090909090909091 0.09090909090909091 
0.14285714285714285 0.14285714285714285 0.14285714285714285 0.14285714285714285 0.14285714285714285 0.14285714285714285 0.14285714285714285 
0.09090909090909091 0.09090909090909091 0.09090909090909091 0.09090909090909091 0.2727272727272727 0.2727272727272727 0.09090909090909091 
0.1111111111111111 0.1111111111111111 0.1111111111111111 0.1111111111111111 0.3333333333333333 0.1111111111111111 0.1111111111111111 
0.1111111111111111 0.1111111111111111 0.3333333333333333 0.1111111111111111 0.1111111111111111 0.1111111111111111 0.1111111111111111 
0.14285714285714285 0.14285714285714285 0.14285714285714285 0.14285714285714285 0.14285714285714285 0.14285714285714285 0.14285714285714285 
0.45454545454545453 0.09090909090909091 0.09090909090909091 0.09090909090909091 0.09090909090909091 0.09090909090909091 0.09090909090909091 
0.14285714285714285 0.14285714285714285 0.14285714285714285 0.14285714285714285 0.14285714285714285 0.14285714285714285 0.14285714285714285 
0.14285714285714285 0.14285714285714285 0.14285714285714285 0.14285714285714285 0.14285714285714285 0.14285714285714285 0.14285714285714285 
0.14285714285714285 0.14285714285714285 0.14285714285714285 0.14285714285714285 0.14285714285714285 0.14285714285714285 0.14285714285714285 
0.6 0.06666666666666667 0.06666666666666667 0.06666666666666667 0.06666666666666667 0.06666666666666667 0.06666666666666667 
0.1111111111111111 0.1111111111111111 0.3333333333333333 0.1111111111111111 0.1111111111111111 0.1111111111111111 0.1111111111111111 
0.14285714285714285 0.14285714285714285 0.14285714285714285 0.14285714285714285 0.14285714285714285 0.14285714285714285 0.14285714285714285 
0.14285714285714285 0.14285714285714285 0.14285714285714285 0.14285714285714285 0.14285714285714285 0.14285714285714285 0.14285714285714285 
0.23076923076923078 0.07692307692307693 0.07692307692307693 0.07692307692307693 0.38461538461538464 0.07692307692307693 0.07692307692307693 
0.1111111111111111 0.1111111111111111 0.3333333333333333 0.1111111111111111 0.1111111111111111 0.1111111111111111 0.1111111111111111 
0.14285714285714285 0.14285714285714285 0.14285714285714285 0.14285714285714285 0.14285714285714285 0.14285714285714285 0.14285714285714285 
0.3333333333333333 0.1111111111111111 0.1111111111111111 0.1111111111111111 0.1111111111111111 0.1111111111111111 0.1111111111111111 
0.14285714285714285 0.14285714285714285 0.14285714285714285 0.14285714285714285 0.14285714285714285 0.14285714285714285 0.14285714285714285 
0.1111111111111111 0.1111111111111111 0.1111111111111111 0.1111111111111111 0.1111111111111111 0.3333333333333333 0.1111111111111111 
0.14285714285714285 0.14285714285714285 0.14285714285714285 0.14285714285714285 0.14285714285714285 0.14285714285714285 0.14285714285714285 
0.07692307692307693 0.07692307692307693 0.07692307692307693 0.07692307692307693 0.5384615384615384 0.07692307692307693 0.07692307692307693 
0.3333333333333333 0.1111111111111111 0.1111111111111111 0.1111111111111111 0.1111111111111111 0.1111111111111111 0.1111111111111111 
0.3333333333333333 0.1111111111111111 0.1111111111111111 0.1111111111111111 0.1111111111111111 0.1111111111111111 0.1111111111111111 
0.14285714285714285 0.14285714285714285 0.14285714285714285 0.14285714285714285 0.14285714285714285 0.14285714285714285 0.14285714285714285 
0.1111111111111111 0.1111111111111111 0.1111111111111111 0.1111111111111111 0.3333333333333333 0.1111111111111111 0.1111111111111111 
0.1111111111111111 0.1111111111111111 0.3333333333333333 0.1111111111111111 0.1111111111111111 0.1111111111111111 0.1111111111111111 
0.14285714285714285 0.14285714285714285 0.14285714285714285 0.14285714285714285 0.14285714285714285 0.14285714285714285 0.14285714285714285 
0.14285714285714285 0.14285714285714285 0.14285714285714285 0.14285714285714285 0.14285714285714285 0.14285714285714285 0.14285714285714285 
0.14285714285714285 0.14285714285714285 0.14285714285714285 0.14285714285714285 0.14285714285714285 0.14285714285714285 0.14285714285714285 
0.14285714285714285 0.14285714285714285 0.14285714285714285 0.14285714285714285 0.14285714285714285 0.14285714285714285 0.14285714285714285 
0.3333333333333333 0.1111111111111111 0.1111111111111111 0.1111111111111111 0.1111111111111111 0.1111111111111111 0.1111111111111111 
0.14285714285714285 0.14285714285714285 0.14285714285714285 0.14285714285714285 0.14285714285714285 0.14285714285714285 0.14285714285714285 
0.3333333333333333 0.1111111111111111 0.1111111111111111 0.1111111111111111 0.1111111111111111 0.1111111111111111 0.1111111111111111 
0.14285714285714285 0.14285714285714285 0.14285714285714285 0.14285714285714285 0.14285714285714285 0.14285714285714285 0.14285714285714285 
0.3333333333333333 0.1111111111111111 0.1111111111111111 0.1111111111111111 0.1111111111111111 0.1111111111111111 0.1111111111111111 
0.6470588235294118 0.058823529411764705 0.058823529411764705 0.058823529411764705 0.058823529411764705 0.058823529411764705 0.058823529411764705 
0.0084985835694051 0.0028328611898017 0.1671388101983003 0.0028328611898017 0.39943342776203966 0.34277620396600567 0.0764872521246459 
0.047619047619047616 0.047619047619047616 0.42857142857142855 0.047619047619047616 0.23809523809523808 0.047619047619047616 0.14285714285714285 
0.2 0.02857142857142857 0.2571428571428571 0.02857142857142857 0.37142857142857144 0.02857142857142857 0.08571428571428572 
0.21212121212121213 0.030303030303030304 0.45454545454545453 0.030303030303030304 0.09090909090909091 0.15151515151515152 0.030303030303030304 
0.38461538461538464 0.07692307692307693 0.07692307692307693 0.07692307692307693 0.23076923076923078 0.07692307692307693 0.07692307692307693 
0.7627118644067796 0.01694915254237288 0.0847457627118644 0.01694915254237288 0.05084745762711865 0.01694915254237288 0.05084745762711865 
0.14285714285714285 0.14285714285714285 0.14285714285714285 0.14285714285714285 0.14285714285714285 0.14285714285714285 0.14285714285714285 
0.6 0.06666666666666667 0.06666666666666667 0.06666666666666667 0.06666666666666667 0.06666666666666667 0.06666666666666667 
0.07692307692307693 0.07692307692307693 0.38461538461538464 0.07692307692307693 0.23076923076923078 0.07692307692307693 0.07692307692307693 
0.09090909090909091 0.09090909090909091 0.2727272727272727 0.09090909090909091 0.09090909090909091 0.2727272727272727 0.09090909090909091 
0.14285714285714285 0.14285714285714285 0.14285714285714285 0.14285714285714285 0.14285714285714285 0.14285714285714285 0.14285714285714285 
0.36 0.04 0.44 0.04 0.04 0.04 0.04 
0.06666666666666667 0.06666666666666667 0.3333333333333333 0.06666666666666667 0.2 0.2 0.06666666666666667 
0.14285714285714285 0.14285714285714285 0.14285714285714285 0.14285714285714285 0.14285714285714285 0.14285714285714285 0.14285714285714285 
0.3333333333333333 0.1111111111111111 0.1111111111111111 0.1111111111111111 0.1111111111111111 0.1111111111111111 0.1111111111111111 
0.14285714285714285 0.14285714285714285 0.14285714285714285 0.14285714285714285 0.14285714285714285 0.14285714285714285 0.14285714285714285 
0.14285714285714285 0.14285714285714285 0.14285714285714285 0.14285714285714285 0.14285714285714285 0.14285714285714285 0.14285714285714285 
0.3333333333333333 0.1111111111111111 0.1111111111111111 0.1111111111111111 0.1111111111111111 0.1111111111111111 0.1111111111111111 
0.1111111111111111 0.1111111111111111 0.3333333333333333 0.1111111111111111 0.1111111111111111 0.1111111111111111 0.1111111111111111 
0.3333333333333333 0.1111111111111111 0.1111111111111111 0.1111111111111111 0.1111111111111111 0.1111111111111111 0.1111111111111111 
0.1111111111111111 0.1111111111111111 0.1111111111111111 0.1111111111111111 0.3333333333333333 0.1111111111111111 0.1111111111111111 
0.09090909090909091 0.09090909090909091 0.09090909090909091 0.09090909090909091 0.2727272727272727 0.2727272727272727 0.09090909090909091 
0.14285714285714285 0.14285714285714285 0.14285714285714285 0.14285714285714285 0.14285714285714285 0.14285714285714285 0.14285714285714285 
0.3333333333333333 0.1111111111111111 0.1111111111111111 0.1111111111111111 0.1111111111111111 0.1111111111111111 0.1111111111111111 
0.1111111111111111 0.1111111111111111 0.1111111111111111 0.1111111111111111 0.3333333333333333 0.1111111111111111 0.1111111111111111 
0.6 0.06666666666666667 0.06666666666666667 0.06666666666666667 0.06666666666666667 0.06666666666666667 0.06666666666666667 
0.3333333333333333 0.1111111111111111 0.1111111111111111 0.1111111111111111 0.1111111111111111 0.1111111111111111 0.1111111111111111 
0.14285714285714285 0.14285714285714285 0.14285714285714285 0.14285714285714285 0.14285714285714285 0.14285714285714285 0.14285714285714285 
0.3333333333333333 0.1111111111111111 0.1111111111111111 0.1111111111111111 0.1111111111111111 0.1111111111111111 0.1111111111111111 
0.1111111111111111 0.1111111111111111 0.3333333333333333 0.1111111111111111 0.1111111111111111 0.1111111111111111 0.1111111111111111 
0.3333333333333333 0.1111111111111111 0.1111111111111111 0.1111111111111111 0.1111111111111111 0.1111111111111111 0.1111111111111111 
0.14285714285714285 0.14285714285714285 0.14285714285714285 0.14285714285714285 0.14285714285714285 0.14285714285714285 0.14285714285714285 
0.4666666666666667 0.06666666666666667 0.2 0.06666666666666667 0.06666666666666667 0.06666666666666667 0.06666666666666667 
0.14285714285714285 0.14285714285714285 0.14285714285714285 0.14285714285714285 0.14285714285714285 0.14285714285714285 0.14285714285714285 
0.1111111111111111 0.1111111111111111 0.1111111111111111 0.1111111111111111 0.1111111111111111 0.3333333333333333 0.1111111111111111 
0.3333333333333333 0.1111111111111111 0.1111111111111111 0.1111111111111111 0.1111111111111111 0.1111111111111111 0.1111111111111111 
0.3333333333333333 0.1111111111111111 0.1111111111111111 0.1111111111111111 0.1111111111111111 0.1111111111111111 0.1111111111111111 
0.3333333333333333 0.1111111111111111 0.1111111111111111 0.1111111111111111 0.1111111111111111 0.1111111111111111 0.1111111111111111 
0.14285714285714285 0.14285714285714285 0.14285714285714285 0.14285714285714285 0.14285714285714285 0.14285714285714285 0.14285714285714285 
0.14285714285714285 0.14285714285714285 0.14285714285714285 0.14285714285714285 0.14285714285714285 0.14285714285714285 0.14285714285714285 
0.2631578947368421 0.05263157894736842 0.47368421052631576 0.05263157894736842 0.05263157894736842 0.05263157894736842 0.05263157894736842 
0.6 0.06666666666666667 0.06666666666666667 0.06666666666666667 0.06666666666666667 0.06666666666666667 0.06666666666666667 
0.3333333333333333 0.1111111111111111 0.1111111111111111 0.1111111111111111 0.1111111111111111 0.1111111111111111 0.1111111111111111 
0.14285714285714285 0.14285714285714285 0.14285714285714285 0.14285714285714285 0.14285714285714285 0.14285714285714285 0.14285714285714285 
0.07692307692307693 0.07692307692307693 0.38461538461538464 0.07692307692307693 0.23076923076923078 0.07692307692307693 0.07692307692307693 
0.3333333333333333 0.1111111111111111 0.1111111111111111 0.1111111111111111 0.1111111111111111 0.1111111111111111 0.1111111111111111 
0.1111111111111111 0.1111111111111111 0.1111111111111111 0.1111111111111111 0.3333333333333333 0.1111111111111111 0.1111111111111111 
0.3333333333333333 0.1111111111111111 0.1111111111111111 0.1111111111111111 0.1111111111111111 0.1111111111111111 0.1111111111111111 
0.14285714285714285 0.14285714285714285 0.14285714285714285 0.14285714285714285 0.14285714285714285 0.14285714285714285 0.14285714285714285 
0.1111111111111111 0.1111111111111111 0.1111111111111111 0.1111111111111111 0.1111111111111111 0.3333333333333333 0.1111111111111111 
0.3333333333333333 0.1111111111111111 0.1111111111111111 0.1111111111111111 0.1111111111111111 0.1111111111111111 0.1111111111111111 
0.14285714285714285 0.14285714285714285 0.14285714285714285 0.14285714285714285 0.14285714285714285 0.14285714285714285 0.14285714285714285 
0.1111111111111111 0.1111111111111111 0.1111111111111111 0.1111111111111111 0.1111111111111111 0.3333333333333333 0.1111111111111111 
0.14285714285714285 0.14285714285714285 0.14285714285714285 0.14285714285714285 0.14285714285714285 0.14285714285714285 0.14285714285714285 
0.38461538461538464 0.07692307692307693 0.23076923076923078 0.07692307692307693 0.07692307692307693 0.07692307692307693 0.07692307692307693 
0.14285714285714285 0.14285714285714285 0.14285714285714285 0.14285714285714285 0.14285714285714285 0.14285714285714285 0.14285714285714285 
0.14285714285714285 0.14285714285714285 0.14285714285714285 0.14285714285714285 0.14285714285714285 0.14285714285714285 0.14285714285714285 
0.1111111111111111 0.1111111111111111 0.1111111111111111 0.1111111111111111 0.1111111111111111 0.3333333333333333 0.1111111111111111 
0.14285714285714285 0.14285714285714285 0.14285714285714285 0.14285714285714285 0.14285714285714285 0.14285714285714285 0.14285714285714285 
0.3333333333333333 0.1111111111111111 0.1111111111111111 0.1111111111111111 0.1111111111111111 0.1111111111111111 0.1111111111111111 
0.14285714285714285 0.14285714285714285 0.14285714285714285 0.14285714285714285 0.14285714285714285 0.14285714285714285 0.14285714285714285 
0.14285714285714285 0.14285714285714285 0.14285714285714285 0.14285714285714285 0.14285714285714285 0.14285714285714285 0.14285714285714285 
0.09090909090909091 0.09090909090909091 0.45454545454545453 0.09090909090909091 0.09090909090909091 0.09090909090909091 0.09090909090909091 
0.14285714285714285 0.14285714285714285 0.14285714285714285 0.14285714285714285 0.14285714285714285 0.14285714285714285 0.14285714285714285 
0.14285714285714285 0.14285714285714285 0.14285714285714285 0.14285714285714285 0.14285714285714285 0.14285714285714285 0.14285714285714285 
0.3333333333333333 0.1111111111111111 0.1111111111111111 0.1111111111111111 0.1111111111111111 0.1111111111111111 0.1111111111111111 
0.14285714285714285 0.14285714285714285 0.14285714285714285 0.14285714285714285 0.14285714285714285 0.14285714285714285 0.14285714285714285 
0.14285714285714285 0.14285714285714285 0.14285714285714285 0.14285714285714285 0.14285714285714285 0.14285714285714285 0.14285714285714285 
0.1111111111111111 0.1111111111111111 0.1111111111111111 0.1111111111111111 0.3333333333333333 0.1111111111111111 0.1111111111111111 
0.1111111111111111 0.1111111111111111 0.1111111111111111 0.1111111111111111 0.3333333333333333 0.1111111111111111 0.1111111111111111 
0.14285714285714285 0.14285714285714285 0.14285714285714285 0.14285714285714285 0.14285714285714285 0.14285714285714285 0.14285714285714285 
0.1111111111111111 0.1111111111111111 0.1111111111111111 0.1111111111111111 0.3333333333333333 0.1111111111111111 0.1111111111111111 
0.14285714285714285 0.14285714285714285 0.14285714285714285 0.14285714285714285 0.14285714285714285 0.14285714285714285 0.14285714285714285 
0.14285714285714285 0.14285714285714285 0.14285714285714285 0.14285714285714285 0.14285714285714285 0.14285714285714285 0.14285714285714285 
0.14285714285714285 0.14285714285714285 0.14285714285714285 0.14285714285714285 0.14285714285714285 0.14285714285714285 0.14285714285714285 
0.1111111111111111 0.1111111111111111 0.3333333333333333 0.1111111111111111 0.1111111111111111 0.1111111111111111 0.1111111111111111 
0.14285714285714285 0.14285714285714285 0.14285714285714285 0.14285714285714285 0.14285714285714285 0.14285714285714285 0.14285714285714285 
0.1111111111111111 0.1111111111111111 0.1111111111111111 0.1111111111111111 0.3333333333333333 0.1111111111111111 0.1111111111111111 
0.004975124378109453 0.004975124378109453 0.004975124378109453 0.004975124378109453 0.014925373134328358 0.2736318407960199 0.6915422885572139 
0.07692307692307693 0.07692307692307693 0.07692307692307693 0.07692307692307693 0.07692307692307693 0.38461538461538464 0.23076923076923078 
0.09090909090909091 0.09090909090909091 0.09090909090909091 0.09090909090909091 0.09090909090909091 0.45454545454545453 0.09090909090909091 
0.09090909090909091 0.09090909090909091 0.09090909090909091 0.09090909090909091 0.09090909090909091 0.45454545454545453 0.09090909090909091 
0.3333333333333333 0.1111111111111111 0.1111111111111111 0.1111111111111111 0.1111111111111111 0.1111111111111111 0.1111111111111111 
0.09090909090909091 0.09090909090909091 0.09090909090909091 0.09090909090909091 0.2727272727272727 0.2727272727272727 0.09090909090909091 
0.14285714285714285 0.14285714285714285 0.14285714285714285 0.14285714285714285 0.14285714285714285 0.14285714285714285 0.14285714285714285 
0.14285714285714285 0.14285714285714285 0.14285714285714285 0.14285714285714285 0.14285714285714285 0.14285714285714285 0.14285714285714285 
0.1111111111111111 0.1111111111111111 0.1111111111111111 0.1111111111111111 0.3333333333333333 0.1111111111111111 0.1111111111111111 
0.14285714285714285 0.14285714285714285 0.14285714285714285 0.14285714285714285 0.14285714285714285 0.14285714285714285 0.14285714285714285 
0.14285714285714285 0.14285714285714285 0.14285714285714285 0.14285714285714285 0.14285714285714285 0.14285714285714285 0.14285714285714285 
0.1111111111111111 0.1111111111111111 0.1111111111111111 0.1111111111111111 0.3333333333333333 0.1111111111111111 0.1111111111111111 
0.14285714285714285 0.14285714285714285 0.14285714285714285 0.14285714285714285 0.14285714285714285 0.14285714285714285 0.14285714285714285 
0.14285714285714285 0.14285714285714285 0.14285714285714285 0.14285714285714285 0.14285714285714285 0.14285714285714285 0.14285714285714285 
0.14285714285714285 0.14285714285714285 0.14285714285714285 0.14285714285714285 0.14285714285714285 0.14285714285714285 0.14285714285714285 
0.14285714285714285 0.14285714285714285 0.14285714285714285 0.14285714285714285 0.14285714285714285 0.14285714285714285 0.14285714285714285 
0.14285714285714285 0.14285714285714285 0.14285714285714285 0.14285714285714285 0.14285714285714285 0.14285714285714285 0.14285714285714285 
0.14285714285714285 0.14285714285714285 0.14285714285714285 0.14285714285714285 0.14285714285714285 0.14285714285714285 0.14285714285714285 
0.14285714285714285 0.14285714285714285 0.14285714285714285 0.14285714285714285 0.14285714285714285 0.14285714285714285 0.14285714285714285 
0.14285714285714285 0.14285714285714285 0.14285714285714285 0.14285714285714285 0.14285714285714285 0.14285714285714285 0.14285714285714285 
0.14285714285714285 0.14285714285714285 0.14285714285714285 0.14285714285714285 0.14285714285714285 0.14285714285714285 0.14285714285714285 
0.14285714285714285 0.14285714285714285 0.14285714285714285 0.14285714285714285 0.14285714285714285 0.14285714285714285 0.14285714285714285 
0.14285714285714285 0.14285714285714285 0.14285714285714285 0.14285714285714285 0.14285714285714285 0.14285714285714285 0.14285714285714285 
0.14285714285714285 0.14285714285714285 0.14285714285714285 0.14285714285714285 0.14285714285714285 0.14285714285714285 0.14285714285714285 
0.1111111111111111 0.1111111111111111 0.1111111111111111 0.1111111111111111 0.1111111111111111 0.3333333333333333 0.1111111111111111 
0.14285714285714285 0.14285714285714285 0.14285714285714285 0.14285714285714285 0.14285714285714285 0.14285714285714285 0.14285714285714285 
0.14285714285714285 0.14285714285714285 0.14285714285714285 0.14285714285714285 0.14285714285714285 0.14285714285714285 0.14285714285714285 
0.14285714285714285 0.14285714285714285 0.14285714285714285 0.14285714285714285 0.14285714285714285 0.14285714285714285 0.14285714285714285 
0.14285714285714285 0.14285714285714285 0.14285714285714285 0.14285714285714285 0.14285714285714285 0.14285714285714285 0.14285714285714285 
0.14285714285714285 0.14285714285714285 0.14285714285714285 0.14285714285714285 0.14285714285714285 0.14285714285714285 0.14285714285714285 
0.14285714285714285 0.14285714285714285 0.14285714285714285 0.14285714285714285 0.14285714285714285 0.14285714285714285 0.14285714285714285 
0.14285714285714285 0.14285714285714285 0.14285714285714285 0.14285714285714285 0.14285714285714285 0.14285714285714285 0.14285714285714285 
0.14285714285714285 0.14285714285714285 0.14285714285714285 0.14285714285714285 0.14285714285714285 0.14285714285714285 0.14285714285714285 
0.14285714285714285 0.14285714285714285 0.14285714285714285 0.14285714285714285 0.14285714285714285 0.14285714285714285 0.14285714285714285 
0.14285714285714285 0.14285714285714285 0.14285714285714285 0.14285714285714285 0.14285714285714285 0.14285714285714285 0.14285714285714285 
0.14285714285714285 0.14285714285714285 0.14285714285714285 0.14285714285714285 0.14285714285714285 0.14285714285714285 0.14285714285714285 
0.14285714285714285 0.14285714285714285 0.14285714285714285 0.14285714285714285 0.14285714285714285 0.14285714285714285 0.14285714285714285 
0.14285714285714285 0.14285714285714285 0.14285714285714285 0.14285714285714285 0.14285714285714285 0.14285714285714285 0.14285714285714285 
0.14285714285714285 0.14285714285714285 0.14285714285714285 0.14285714285714285 0.14285714285714285 0.14285714285714285 0.14285714285714285 
0.14285714285714285 0.14285714285714285 0.14285714285714285 0.14285714285714285 0.14285714285714285 0.14285714285714285 0.14285714285714285 
0.14285714285714285 0.14285714285714285 0.14285714285714285 0.14285714285714285 0.14285714285714285 0.14285714285714285 0.14285714285714285 
0.1111111111111111 0.1111111111111111 0.1111111111111111 0.1111111111111111 0.1111111111111111 0.3333333333333333 0.1111111111111111 
0.14285714285714285 0.14285714285714285 0.14285714285714285 0.14285714285714285 0.14285714285714285 0.14285714285714285 0.14285714285714285 
0.14285714285714285 0.14285714285714285 0.14285714285714285 0.14285714285714285 0.14285714285714285 0.14285714285714285 0.14285714285714285 
0.14285714285714285 0.14285714285714285 0.14285714285714285 0.14285714285714285 0.14285714285714285 0.14285714285714285 0.14285714285714285 
0.14285714285714285 0.14285714285714285 0.14285714285714285 0.14285714285714285 0.14285714285714285 0.14285714285714285 0.14285714285714285 
0.14285714285714285 0.14285714285714285 0.14285714285714285 0.14285714285714285 0.14285714285714285 0.14285714285714285 0.14285714285714285 
0.14285714285714285 0.14285714285714285 0.14285714285714285 0.14285714285714285 0.14285714285714285 0.14285714285714285 0.14285714285714285 
0.14285714285714285 0.14285714285714285 0.14285714285714285 0.14285714285714285 0.14285714285714285 0.14285714285714285 0.14285714285714285 
0.14285714285714285 0.14285714285714285 0.14285714285714285 0.14285714285714285 0.14285714285714285 0.14285714285714285 0.14285714285714285 
0.14285714285714285 0.14285714285714285 0.14285714285714285 0.14285714285714285 0.14285714285714285 0.14285714285714285 0.14285714285714285 
0.14285714285714285 0.14285714285714285 0.14285714285714285 0.14285714285714285 0.14285714285714285 0.14285714285714285 0.14285714285714285 
0.14285714285714285 0.14285714285714285 0.14285714285714285 0.14285714285714285 0.14285714285714285 0.14285714285714285 0.14285714285714285 
0.14285714285714285 0.14285714285714285 0.14285714285714285 0.14285714285714285 0.14285714285714285 0.14285714285714285 0.14285714285714285 
0.14285714285714285 0.14285714285714285 0.14285714285714285 0.14285714285714285 0.14285714285714285 0.14285714285714285 0.14285714285714285 
0.14285714285714285 0.14285714285714285 0.14285714285714285 0.14285714285714285 0.14285714285714285 0.14285714285714285 0.14285714285714285 
0.14285714285714285 0.14285714285714285 0.14285714285714285 0.14285714285714285 0.14285714285714285 0.14285714285714285 0.14285714285714285 
0.14285714285714285 0.14285714285714285 0.14285714285714285 0.14285714285714285 0.14285714285714285 0.14285714285714285 0.14285714285714285 
0.14285714285714285 0.14285714285714285 0.14285714285714285 0.14285714285714285 0.14285714285714285 0.14285714285714285 0.14285714285714285 
0.14285714285714285 0.14285714285714285 0.14285714285714285 0.14285714285714285 0.14285714285714285 0.14285714285714285 0.14285714285714285 
0.14285714285714285 0.14285714285714285 0.14285714285714285 0.14285714285714285 0.14285714285714285 0.14285714285714285 0.14285714285714285 
0.14285714285714285 0.14285714285714285 0.14285714285714285 0.14285714285714285 0.14285714285714285 0.14285714285714285 0.14285714285714285 
0.14285714285714285 0.14285714285714285 0.14285714285714285 0.14285714285714285 0.14285714285714285 0.14285714285714285 0.14285714285714285 
0.14285714285714285 0.14285714285714285 0.14285714285714285 0.14285714285714285 0.14285714285714285 0.14285714285714285 0.14285714285714285 
0.14285714285714285 0.14285714285714285 0.14285714285714285 0.14285714285714285 0.14285714285714285 0.14285714285714285 0.14285714285714285 
0.14285714285714285 0.14285714285714285 0.14285714285714285 0.14285714285714285 0.14285714285714285 0.14285714285714285 0.14285714285714285 
0.14285714285714285 0.14285714285714285 0.14285714285714285 0.14285714285714285 0.14285714285714285 0.14285714285714285 0.14285714285714285 
0.09090909090909091 0.09090909090909091 0.09090909090909091 0.09090909090909091 0.2727272727272727 0.09090909090909091 0.2727272727272727 
0.14285714285714285 0.14285714285714285 0.14285714285714285 0.14285714285714285 0.14285714285714285 0.14285714285714285 0.14285714285714285 
0.14285714285714285 0.14285714285714285 0.14285714285714285 0.14285714285714285 0.14285714285714285 0.14285714285714285 0.14285714285714285 
0.14285714285714285 0.14285714285714285 0.14285714285714285 0.14285714285714285 0.14285714285714285 0.14285714285714285 0.14285714285714285 
0.14285714285714285 0.14285714285714285 0.14285714285714285 0.14285714285714285 0.14285714285714285 0.14285714285714285 0.14285714285714285 
0.14285714285714285 0.14285714285714285 0.14285714285714285 0.14285714285714285 0.14285714285714285 0.14285714285714285 0.14285714285714285 
0.14285714285714285 0.14285714285714285 0.14285714285714285 0.14285714285714285 0.14285714285714285 0.14285714285714285 0.14285714285714285 
0.14285714285714285 0.14285714285714285 0.14285714285714285 0.14285714285714285 0.14285714285714285 0.14285714285714285 0.14285714285714285 
0.14285714285714285 0.14285714285714285 0.14285714285714285 0.14285714285714285 0.14285714285714285 0.14285714285714285 0.14285714285714285 
0.14285714285714285 0.14285714285714285 0.14285714285714285 0.14285714285714285 0.14285714285714285 0.14285714285714285 0.14285714285714285 
</TABLE>
</DEFINITION>
<DEFINITION>
<FOR>employee_residence</FOR>
	<GIVEN>company_location</GIVEN>
<TABLE>
0.6508620689655172 0.004310344827586207 0.004310344827586207 0.004310344827586207 0.004310344827586207 0.004310344827586207 0.004310344827586207 0.004310344827586207 0.01293103448275862 0.004310344827586207 0.004310344827586207 0.004310344827586207 0.01293103448275862 0.004310344827586207 0.004310344827586207 0.004310344827586207 0.004310344827586207 0.004310344827586207 0.004310344827586207 0.004310344827586207 0.004310344827586207 0.004310344827586207 0.004310344827586207 0.004310344827586207 0.004310344827586207 0.004310344827586207 0.004310344827586207 0.004310344827586207 0.004310344827586207 0.004310344827586207 0.004310344827586207 0.004310344827586207 0.004310344827586207 0.004310344827586207 0.004310344827586207 0.004310344827586207 0.004310344827586207 0.004310344827586207 0.004310344827586207 0.004310344827586207 0.004310344827586207 0.004310344827586207 0.004310344827586207 0.004310344827586207 0.004310344827586207 0.004310344827586207 0.004310344827586207 0.004310344827586207 0.004310344827586207 0.004310344827586207 0.004310344827586207 0.004310344827586207 0.004310344827586207 0.004310344827586207 0.004310344827586207 0.004310344827586207 0.004310344827586207 0.004310344827586207 0.004310344827586207 0.004310344827586207 0.004310344827586207 0.004310344827586207 0.004310344827586207 0.004310344827586207 0.004310344827586207 0.004310344827586207 0.004310344827586207 0.004310344827586207 0.004310344827586207 0.004310344827586207 0.004310344827586207 0.004310344827586207 0.004310344827586207 0.004310344827586207 0.004310344827586207 0.004310344827586207 0.004310344827586207 0.004310344827586207 
0.0011371020142949967 0.9741715399610137 4.873294346978557E-4 4.873294346978557E-4 1.6244314489928524E-4 1.6244314489928524E-4 0.0024366471734892786 1.6244314489928524E-4 8.122157244964262E-4 1.6244314489928524E-4 1.6244314489928524E-4 1.6244314489928524E-4 4.873294346978557E-4 1.6244314489928524E-4 1.6244314489928524E-4 1.6244314489928524E-4 1.6244314489928524E-4 1.6244314489928524E-4 1.6244314489928524E-4 1.6244314489928524E-4 1.6244314489928524E-4 1.6244314489928524E-4 1.6244314489928524E-4 1.6244314489928524E-4 4.873294346978557E-4 4.873294346978557E-4 0.0011371020142949967 1.6244314489928524E-4 1.6244314489928524E-4 1.6244314489928524E-4 4.873294346978557E-4 4.873294346978557E-4 1.6244314489928524E-4 8.122157244964262E-4 1.6244314489928524E-4 1.6244314489928524E-4 1.6244314489928524E-4 4.873294346978557E-4 1.6244314489928524E-4 1.6244314489928524E-4 4.873294346978557E-4 4.873294346978557E-4 4.873294346978557E-4 1.6244314489928524E-4 1.6244314489928524E-4 4.873294346978557E-4 1.6244314489928524E-4 1.6244314489928524E-4 4.873294346978557E-4 1.6244314489928524E-4 4.873294346978557E-4 4.873294346978557E-4 1.6244314489928524E-4 4.873294346978557E-4 4.873294346978557E-4 1.6244314489928524E-4 8.122157244964262E-4 4.873294346978557E-4 1.6244314489928524E-4 1.6244314489928524E-4 1.6244314489928524E-4 1.6244314489928524E-4 4.873294346978557E-4 1.6244314489928524E-4 1.6244314489928524E-4 1.6244314489928524E-4 1.6244314489928524E-4 1.6244314489928524E-4 8.122157244964262E-4 1.6244314489928524E-4 1.6244314489928524E-4 4.873294346978557E-4 1.6244314489928524E-4 1.6244314489928524E-4 1.6244314489928524E-4 1.6244314489928524E-4 1.6244314489928524E-4 1.6244314489928524E-4 
0.003968253968253968 0.011904761904761904 0.6626984126984127 0.003968253968253968 0.011904761904761904 0.011904761904761904 0.003968253968253968 0.003968253968253968 0.003968253968253968 0.011904761904761904 0.003968253968253968 0.003968253968253968 0.003968253968253968 0.003968253968253968 0.003968253968253968 0.003968253968253968 0.003968253968253968 0.003968253968253968 0.003968253968253968 0.003968253968253968 0.003968253968253968 0.003968253968253968 0.003968253968253968 0.003968253968253968 0.003968253968253968 0.003968253968253968 0.003968253968253968 0.003968253968253968 0.003968253968253968 0.003968253968253968 0.003968253968253968 0.003968253968253968 0.003968253968253968 0.003968253968253968 0.003968253968253968 0.003968253968253968 0.003968253968253968 0.003968253968253968 0.003968253968253968 0.003968253968253968 0.003968253968253968 0.003968253968253968 0.003968253968253968 0.003968253968253968 0.003968253968253968 0.003968253968253968 0.003968253968253968 0.003968253968253968 0.003968253968253968 0.003968253968253968 0.003968253968253968 0.003968253968253968 0.003968253968253968 0.003968253968253968 0.003968253968253968 0.003968253968253968 0.003968253968253968 0.003968253968253968 0.003968253968253968 0.003968253968253968 0.003968253968253968 0.003968253968253968 0.003968253968253968 0.003968253968253968 0.003968253968253968 0.003968253968253968 0.003968253968253968 0.003968253968253968 0.003968253968253968 0.003968253968253968 0.003968253968253968 0.003968253968253968 0.003968253968253968 0.003968253968253968 0.003968253968253968 0.003968253968253968 0.003968253968253968 0.003968253968253968 
0.005263157894736842 0.015789473684210527 0.005263157894736842 0.48947368421052634 0.005263157894736842 0.005263157894736842 0.015789473684210527 0.005263157894736842 0.005263157894736842 0.015789473684210527 0.005263157894736842 0.005263157894736842 0.015789473684210527 0.005263157894736842 0.005263157894736842 0.005263157894736842 0.005263157894736842 0.005263157894736842 0.005263157894736842 0.015789473684210527 0.005263157894736842 0.005263157894736842 0.005263157894736842 0.005263157894736842 0.005263157894736842 0.005263157894736842 0.005263157894736842 0.005263157894736842 0.005263157894736842 0.005263157894736842 0.005263157894736842 0.005263157894736842 0.005263157894736842 0.005263157894736842 0.005263157894736842 0.005263157894736842 0.005263157894736842 0.005263157894736842 0.005263157894736842 0.005263157894736842 0.005263157894736842 0.02631578947368421 0.02631578947368421 0.005263157894736842 0.005263157894736842 0.005263157894736842 0.005263157894736842 0.005263157894736842 0.005263157894736842 0.005263157894736842 0.005263157894736842 0.005263157894736842 0.005263157894736842 0.005263157894736842 0.005263157894736842 0.005263157894736842 0.005263157894736842 0.005263157894736842 0.005263157894736842 0.005263157894736842 0.005263157894736842 0.005263157894736842 0.005263157894736842 0.005263157894736842 0.005263157894736842 0.005263157894736842 0.005263157894736842 0.005263157894736842 0.005263157894736842 0.005263157894736842 0.005263157894736842 0.005263157894736842 0.005263157894736842 0.015789473684210527 0.005263157894736842 0.005263157894736842 0.005263157894736842 0.005263157894736842 
0.0071090047393364926 0.002369668246445498 0.002369668246445498 0.002369668246445498 0.7890995260663507 0.002369668246445498 0.002369668246445498 0.0071090047393364926 0.002369668246445498 0.002369668246445498 0.002369668246445498 0.002369668246445498 0.0071090047393364926 0.002369668246445498 0.002369668246445498 0.002369668246445498 0.002369668246445498 0.002369668246445498 0.002369668246445498 0.002369668246445498 0.002369668246445498 0.002369668246445498 0.002369668246445498 0.002369668246445498 0.002369668246445498 0.002369668246445498 0.002369668246445498 0.002369668246445498 0.002369668246445498 0.0071090047393364926 0.002369668246445498 0.0071090047393364926 0.002369668246445498 0.002369668246445498 0.002369668246445498 0.002369668246445498 0.002369668246445498 0.002369668246445498 0.002369668246445498 0.002369668246445498 0.0071090047393364926 0.002369668246445498 0.002369668246445498 0.002369668246445498 0.002369668246445498 0.002369668246445498 0.002369668246445498 0.002369668246445498 0.002369668246445498 0.002369668246445498 0.002369668246445498 0.002369668246445498 0.002369668246445498 0.002369668246445498 0.002369668246445498 0.002369668246445498 0.002369668246445498 0.002369668246445498 0.002369668246445498 0.002369668246445498 0.002369668246445498 0.002369668246445498 0.002369668246445498 0.002369668246445498 0.002369668246445498 0.002369668246445498 0.002369668246445498 0.002369668246445498 0.002369668246445498 0.002369668246445498 0.002369668246445498 0.002369668246445498 0.002369668246445498 0.002369668246445498 0.002369668246445498 0.002369668246445498 0.002369668246445498 0.002369668246445498 
0.011363636363636364 0.011363636363636364 0.011363636363636364 0.011363636363636364 0.011363636363636364 0.125 0.011363636363636364 0.011363636363636364 0.011363636363636364 0.011363636363636364 0.011363636363636364 0.011363636363636364 0.011363636363636364 0.011363636363636364 0.011363636363636364 0.011363636363636364 0.011363636363636364 0.011363636363636364 0.011363636363636364 0.011363636363636364 0.011363636363636364 0.011363636363636364 0.011363636363636364 0.011363636363636364 0.011363636363636364 0.011363636363636364 0.011363636363636364 0.011363636363636364 0.011363636363636364 0.011363636363636364 0.011363636363636364 0.011363636363636364 0.011363636363636364 0.011363636363636364 0.011363636363636364 0.011363636363636364 0.011363636363636364 0.011363636363636364 0.011363636363636364 0.011363636363636364 0.011363636363636364 0.011363636363636364 0.011363636363636364 0.011363636363636364 0.011363636363636364 0.011363636363636364 0.011363636363636364 0.011363636363636364 0.011363636363636364 0.011363636363636364 0.011363636363636364 0.011363636363636364 0.011363636363636364 0.011363636363636364 0.011363636363636364 0.011363636363636364 0.011363636363636364 0.011363636363636364 0.011363636363636364 0.011363636363636364 0.011363636363636364 0.011363636363636364 0.011363636363636364 0.011363636363636364 0.011363636363636364 0.011363636363636364 0.011363636363636364 0.011363636363636364 0.011363636363636364 0.011363636363636364 0.011363636363636364 0.011363636363636364 0.011363636363636364 0.011363636363636364 0.011363636363636364 0.011363636363636364 0.011363636363636364 0.011363636363636364 
0.005154639175257732 0.005154639175257732 0.005154639175257732 0.005154639175257732 0.005154639175257732 0.005154639175257732 0.5824742268041238 0.005154639175257732 0.005154639175257732 0.005154639175257732 0.005154639175257732 0.005154639175257732 0.015463917525773196 0.005154639175257732 0.005154639175257732 0.005154639175257732 0.005154639175257732 0.005154639175257732 0.005154639175257732 0.005154639175257732 0.005154639175257732 0.005154639175257732 0.005154639175257732 0.005154639175257732 0.005154639175257732 0.005154639175257732 0.005154639175257732 0.005154639175257732 0.005154639175257732 0.015463917525773196 0.005154639175257732 0.005154639175257732 0.005154639175257732 0.005154639175257732 0.005154639175257732 0.005154639175257732 0.005154639175257732 0.005154639175257732 0.005154639175257732 0.005154639175257732 0.005154639175257732 0.005154639175257732 0.005154639175257732 0.005154639175257732 0.005154639175257732 0.005154639175257732 0.005154639175257732 0.005154639175257732 0.005154639175257732 0.005154639175257732 0.005154639175257732 0.005154639175257732 0.005154639175257732 0.005154639175257732 0.005154639175257732 0.005154639175257732 0.005154639175257732 0.005154639175257732 0.005154639175257732 0.005154639175257732 0.005154639175257732 0.005154639175257732 0.005154639175257732 0.005154639175257732 0.005154639175257732 0.005154639175257732 0.005154639175257732 0.005154639175257732 0.005154639175257732 0.005154639175257732 0.005154639175257732 0.005154639175257732 0.005154639175257732 0.005154639175257732 0.005154639175257732 0.005154639175257732 0.005154639175257732 0.005154639175257732 
0.0125 0.0125 0.0125 0.0125 0.0125 0.0125 0.0125 0.0375 0.0125 0.0125 0.0125 0.0125 0.0125 0.0125 0.0125 0.0125 0.0125 0.0125 0.0125 0.0125 0.0125 0.0125 0.0125 0.0125 0.0125 0.0125 0.0125 0.0125 0.0125 0.0125 0.0125 0.0125 0.0125 0.0125 0.0125 0.0125 0.0125 0.0125 0.0125 0.0125 0.0125 0.0125 0.0125 0.0125 0.0125 0.0125 0.0125 0.0125 0.0125 0.0125 0.0125 0.0125 0.0125 0.0125 0.0125 0.0125 0.0125 0.0125 0.0125 0.0125 0.0125 0.0125 0.0125 0.0125 0.0125 0.0125 0.0125 0.0125 0.0125 0.0125 0.0125 0.0125 0.0125 0.0125 0.0125 0.0125 0.0125 0.0125 
0.009615384615384616 0.009615384615384616 0.009615384615384616 0.009615384615384616 0.009615384615384616 0.009615384615384616 0.009615384615384616 0.009615384615384616 0.009615384615384616 0.25961538461538464 0.009615384615384616 0.009615384615384616 0.009615384615384616 0.009615384615384616 0.009615384615384616 0.009615384615384616 0.009615384615384616 0.009615384615384616 0.009615384615384616 0.009615384615384616 0.009615384615384616 0.009615384615384616 0.009615384615384616 0.009615384615384616 0.009615384615384616 0.009615384615384616 0.009615384615384616 0.009615384615384616 0.009615384615384616 0.009615384615384616 0.009615384615384616 0.009615384615384616 0.009615384615384616 0.009615384615384616 0.009615384615384616 0.009615384615384616 0.009615384615384616 0.009615384615384616 0.009615384615384616 0.009615384615384616 0.009615384615384616 0.009615384615384616 0.009615384615384616 0.009615384615384616 0.009615384615384616 0.009615384615384616 0.009615384615384616 0.009615384615384616 0.009615384615384616 0.009615384615384616 0.009615384615384616 0.009615384615384616 0.009615384615384616 0.009615384615384616 0.009615384615384616 0.009615384615384616 0.009615384615384616 0.009615384615384616 0.009615384615384616 0.009615384615384616 0.009615384615384616 0.009615384615384616 0.009615384615384616 0.009615384615384616 0.009615384615384616 0.009615384615384616 0.009615384615384616 0.009615384615384616 0.009615384615384616 0.009615384615384616 0.009615384615384616 0.009615384615384616 0.009615384615384616 0.009615384615384616 0.009615384615384616 0.009615384615384616 0.009615384615384616 0.009615384615384616 
0.011363636363636364 0.011363636363636364 0.011363636363636364 0.011363636363636364 0.011363636363636364 0.011363636363636364 0.03409090909090909 0.011363636363636364 0.011363636363636364 0.011363636363636364 0.10227272727272728 0.011363636363636364 0.011363636363636364 0.011363636363636364 0.011363636363636364 0.011363636363636364 0.011363636363636364 0.011363636363636364 0.011363636363636364 0.011363636363636364 0.011363636363636364 0.011363636363636364 0.011363636363636364 0.011363636363636364 0.011363636363636364 0.011363636363636364 0.011363636363636364 0.011363636363636364 0.011363636363636364 0.011363636363636364 0.011363636363636364 0.011363636363636364 0.011363636363636364 0.011363636363636364 0.011363636363636364 0.011363636363636364 0.011363636363636364 0.011363636363636364 0.011363636363636364 0.011363636363636364 0.011363636363636364 0.011363636363636364 0.011363636363636364 0.011363636363636364 0.011363636363636364 0.011363636363636364 0.011363636363636364 0.011363636363636364 0.011363636363636364 0.011363636363636364 0.011363636363636364 0.011363636363636364 0.011363636363636364 0.011363636363636364 0.011363636363636364 0.011363636363636364 0.011363636363636364 0.011363636363636364 0.011363636363636364 0.011363636363636364 0.011363636363636364 0.011363636363636364 0.011363636363636364 0.011363636363636364 0.011363636363636364 0.011363636363636364 0.011363636363636364 0.011363636363636364 0.011363636363636364 0.011363636363636364 0.011363636363636364 0.011363636363636364 0.011363636363636364 0.011363636363636364 0.011363636363636364 0.011363636363636364 0.011363636363636364 0.011363636363636364 
0.012195121951219513 0.012195121951219513 0.012195121951219513 0.012195121951219513 0.012195121951219513 0.012195121951219513 0.012195121951219513 0.012195121951219513 0.012195121951219513 0.012195121951219513 0.012195121951219513 0.06097560975609756 0.012195121951219513 0.012195121951219513 0.012195121951219513 0.012195121951219513 0.012195121951219513 0.012195121951219513 0.012195121951219513 0.012195121951219513 0.012195121951219513 0.012195121951219513 0.012195121951219513 0.012195121951219513 0.012195121951219513 0.012195121951219513 0.012195121951219513 0.012195121951219513 0.012195121951219513 0.012195121951219513 0.012195121951219513 0.012195121951219513 0.012195121951219513 0.012195121951219513 0.012195121951219513 0.012195121951219513 0.012195121951219513 0.012195121951219513 0.012195121951219513 0.012195121951219513 0.012195121951219513 0.012195121951219513 0.012195121951219513 0.012195121951219513 0.012195121951219513 0.012195121951219513 0.012195121951219513 0.012195121951219513 0.012195121951219513 0.012195121951219513 0.012195121951219513 0.012195121951219513 0.012195121951219513 0.012195121951219513 0.012195121951219513 0.012195121951219513 0.012195121951219513 0.012195121951219513 0.012195121951219513 0.012195121951219513 0.012195121951219513 0.012195121951219513 0.012195121951219513 0.012195121951219513 0.012195121951219513 0.012195121951219513 0.012195121951219513 0.012195121951219513 0.012195121951219513 0.012195121951219513 0.012195121951219513 0.012195121951219513 0.012195121951219513 0.012195121951219513 0.012195121951219513 0.012195121951219513 0.012195121951219513 0.012195121951219513 
0.00684931506849315 0.02054794520547945 0.00684931506849315 0.00684931506849315 0.00684931506849315 0.00684931506849315 0.00684931506849315 0.00684931506849315 0.00684931506849315 0.00684931506849315 0.00684931506849315 0.00684931506849315 0.4452054794520548 0.00684931506849315 0.00684931506849315 0.00684931506849315 0.00684931506849315 0.00684931506849315 0.00684931506849315 0.00684931506849315 0.00684931506849315 0.00684931506849315 0.00684931506849315 0.00684931506849315 0.00684931506849315 0.00684931506849315 0.00684931506849315 0.00684931506849315 0.00684931506849315 0.00684931506849315 0.00684931506849315 0.00684931506849315 0.00684931506849315 0.00684931506849315 0.00684931506849315 0.00684931506849315 0.00684931506849315 0.00684931506849315 0.00684931506849315 0.00684931506849315 0.00684931506849315 0.00684931506849315 0.00684931506849315 0.00684931506849315 0.00684931506849315 0.00684931506849315 0.00684931506849315 0.00684931506849315 0.00684931506849315 0.00684931506849315 0.00684931506849315 0.00684931506849315 0.00684931506849315 0.00684931506849315 0.00684931506849315 0.00684931506849315 0.00684931506849315 0.00684931506849315 0.02054794520547945 0.00684931506849315 0.00684931506849315 0.00684931506849315 0.00684931506849315 0.00684931506849315 0.00684931506849315 0.00684931506849315 0.00684931506849315 0.00684931506849315 0.00684931506849315 0.00684931506849315 0.00684931506849315 0.00684931506849315 0.00684931506849315 0.00684931506849315 0.00684931506849315 0.00684931506849315 0.00684931506849315 0.00684931506849315 
0.011904761904761904 0.011904761904761904 0.011904761904761904 0.011904761904761904 0.011904761904761904 0.011904761904761904 0.011904761904761904 0.011904761904761904 0.011904761904761904 0.011904761904761904 0.011904761904761904 0.011904761904761904 0.011904761904761904 0.03571428571428571 0.05952380952380952 0.011904761904761904 0.011904761904761904 0.011904761904761904 0.011904761904761904 0.011904761904761904 0.011904761904761904 0.011904761904761904 0.011904761904761904 0.011904761904761904 0.011904761904761904 0.011904761904761904 0.011904761904761904 0.011904761904761904 0.011904761904761904 0.011904761904761904 0.011904761904761904 0.011904761904761904 0.011904761904761904 0.011904761904761904 0.011904761904761904 0.011904761904761904 0.011904761904761904 0.011904761904761904 0.011904761904761904 0.011904761904761904 0.011904761904761904 0.011904761904761904 0.011904761904761904 0.011904761904761904 0.011904761904761904 0.011904761904761904 0.011904761904761904 0.011904761904761904 0.011904761904761904 0.011904761904761904 0.011904761904761904 0.011904761904761904 0.011904761904761904 0.011904761904761904 0.011904761904761904 0.011904761904761904 0.011904761904761904 0.011904761904761904 0.011904761904761904 0.011904761904761904 0.011904761904761904 0.011904761904761904 0.011904761904761904 0.011904761904761904 0.011904761904761904 0.011904761904761904 0.011904761904761904 0.011904761904761904 0.011904761904761904 0.011904761904761904 0.011904761904761904 0.011904761904761904 0.011904761904761904 0.011904761904761904 0.011904761904761904 0.011904761904761904 0.011904761904761904 0.011904761904761904 
0.011627906976744186 0.011627906976744186 0.011627906976744186 0.011627906976744186 0.011627906976744186 0.011627906976744186 0.011627906976744186 0.011627906976744186 0.011627906976744186 0.011627906976744186 0.011627906976744186 0.011627906976744186 0.011627906976744186 0.011627906976744186 0.011627906976744186 0.10465116279069768 0.011627906976744186 0.011627906976744186 0.011627906976744186 0.011627906976744186 0.011627906976744186 0.011627906976744186 0.011627906976744186 0.011627906976744186 0.011627906976744186 0.011627906976744186 0.011627906976744186 0.011627906976744186 0.011627906976744186 0.011627906976744186 0.011627906976744186 0.011627906976744186 0.011627906976744186 0.011627906976744186 0.011627906976744186 0.011627906976744186 0.011627906976744186 0.011627906976744186 0.011627906976744186 0.011627906976744186 0.011627906976744186 0.011627906976744186 0.011627906976744186 0.011627906976744186 0.011627906976744186 0.011627906976744186 0.011627906976744186 0.011627906976744186 0.011627906976744186 0.011627906976744186 0.011627906976744186 0.011627906976744186 0.011627906976744186 0.011627906976744186 0.011627906976744186 0.011627906976744186 0.011627906976744186 0.011627906976744186 0.011627906976744186 0.011627906976744186 0.011627906976744186 0.011627906976744186 0.011627906976744186 0.011627906976744186 0.011627906976744186 0.011627906976744186 0.011627906976744186 0.011627906976744186 0.011627906976744186 0.011627906976744186 0.011627906976744186 0.011627906976744186 0.011627906976744186 0.011627906976744186 0.011627906976744186 0.011627906976744186 0.011627906976744186 0.011627906976744186 
0.010869565217391304 0.010869565217391304 0.010869565217391304 0.010869565217391304 0.010869565217391304 0.010869565217391304 0.010869565217391304 0.010869565217391304 0.010869565217391304 0.010869565217391304 0.010869565217391304 0.010869565217391304 0.010869565217391304 0.010869565217391304 0.010869565217391304 0.010869565217391304 0.16304347826086957 0.010869565217391304 0.010869565217391304 0.010869565217391304 0.010869565217391304 0.010869565217391304 0.010869565217391304 0.010869565217391304 0.010869565217391304 0.010869565217391304 0.010869565217391304 0.010869565217391304 0.010869565217391304 0.010869565217391304 0.010869565217391304 0.010869565217391304 0.010869565217391304 0.010869565217391304 0.010869565217391304 0.010869565217391304 0.010869565217391304 0.010869565217391304 0.010869565217391304 0.010869565217391304 0.010869565217391304 0.010869565217391304 0.010869565217391304 0.010869565217391304 0.010869565217391304 0.010869565217391304 0.010869565217391304 0.010869565217391304 0.010869565217391304 0.010869565217391304 0.010869565217391304 0.010869565217391304 0.010869565217391304 0.010869565217391304 0.010869565217391304 0.010869565217391304 0.010869565217391304 0.010869565217391304 0.010869565217391304 0.010869565217391304 0.010869565217391304 0.010869565217391304 0.010869565217391304 0.010869565217391304 0.010869565217391304 0.010869565217391304 0.010869565217391304 0.010869565217391304 0.010869565217391304 0.010869565217391304 0.010869565217391304 0.010869565217391304 0.010869565217391304 0.010869565217391304 0.010869565217391304 0.010869565217391304 0.010869565217391304 0.010869565217391304 
0.012195121951219513 0.012195121951219513 0.012195121951219513 0.012195121951219513 0.012195121951219513 0.012195121951219513 0.012195121951219513 0.012195121951219513 0.012195121951219513 0.012195121951219513 0.012195121951219513 0.012195121951219513 0.012195121951219513 0.012195121951219513 0.012195121951219513 0.012195121951219513 0.012195121951219513 0.036585365853658534 0.012195121951219513 0.012195121951219513 0.012195121951219513 0.036585365853658534 0.012195121951219513 0.012195121951219513 0.012195121951219513 0.012195121951219513 0.012195121951219513 0.012195121951219513 0.012195121951219513 0.012195121951219513 0.012195121951219513 0.012195121951219513 0.012195121951219513 0.012195121951219513 0.012195121951219513 0.012195121951219513 0.012195121951219513 0.012195121951219513 0.012195121951219513 0.012195121951219513 0.012195121951219513 0.012195121951219513 0.012195121951219513 0.012195121951219513 0.012195121951219513 0.012195121951219513 0.012195121951219513 0.012195121951219513 0.012195121951219513 0.012195121951219513 0.012195121951219513 0.012195121951219513 0.012195121951219513 0.012195121951219513 0.012195121951219513 0.012195121951219513 0.012195121951219513 0.012195121951219513 0.012195121951219513 0.012195121951219513 0.012195121951219513 0.012195121951219513 0.012195121951219513 0.012195121951219513 0.012195121951219513 0.012195121951219513 0.012195121951219513 0.012195121951219513 0.012195121951219513 0.012195121951219513 0.012195121951219513 0.012195121951219513 0.012195121951219513 0.012195121951219513 0.012195121951219513 0.012195121951219513 0.012195121951219513 0.012195121951219513 
0.012195121951219513 0.012195121951219513 0.012195121951219513 0.012195121951219513 0.012195121951219513 0.012195121951219513 0.012195121951219513 0.012195121951219513 0.012195121951219513 0.012195121951219513 0.012195121951219513 0.012195121951219513 0.012195121951219513 0.012195121951219513 0.012195121951219513 0.012195121951219513 0.012195121951219513 0.012195121951219513 0.06097560975609756 0.012195121951219513 0.012195121951219513 0.012195121951219513 0.012195121951219513 0.012195121951219513 0.012195121951219513 0.012195121951219513 0.012195121951219513 0.012195121951219513 0.012195121951219513 0.012195121951219513 0.012195121951219513 0.012195121951219513 0.012195121951219513 0.012195121951219513 0.012195121951219513 0.012195121951219513 0.012195121951219513 0.012195121951219513 0.012195121951219513 0.012195121951219513 0.012195121951219513 0.012195121951219513 0.012195121951219513 0.012195121951219513 0.012195121951219513 0.012195121951219513 0.012195121951219513 0.012195121951219513 0.012195121951219513 0.012195121951219513 0.012195121951219513 0.012195121951219513 0.012195121951219513 0.012195121951219513 0.012195121951219513 0.012195121951219513 0.012195121951219513 0.012195121951219513 0.012195121951219513 0.012195121951219513 0.012195121951219513 0.012195121951219513 0.012195121951219513 0.012195121951219513 0.012195121951219513 0.012195121951219513 0.012195121951219513 0.012195121951219513 0.012195121951219513 0.012195121951219513 0.012195121951219513 0.012195121951219513 0.012195121951219513 0.012195121951219513 0.012195121951219513 0.012195121951219513 0.012195121951219513 0.012195121951219513 
0.011627906976744186 0.011627906976744186 0.011627906976744186 0.011627906976744186 0.011627906976744186 0.011627906976744186 0.011627906976744186 0.011627906976744186 0.011627906976744186 0.011627906976744186 0.011627906976744186 0.011627906976744186 0.011627906976744186 0.011627906976744186 0.011627906976744186 0.011627906976744186 0.011627906976744186 0.011627906976744186 0.011627906976744186 0.011627906976744186 0.10465116279069768 0.011627906976744186 0.011627906976744186 0.011627906976744186 0.011627906976744186 0.011627906976744186 0.011627906976744186 0.011627906976744186 0.011627906976744186 0.011627906976744186 0.011627906976744186 0.011627906976744186 0.011627906976744186 0.011627906976744186 0.011627906976744186 0.011627906976744186 0.011627906976744186 0.011627906976744186 0.011627906976744186 0.011627906976744186 0.011627906976744186 0.011627906976744186 0.011627906976744186 0.011627906976744186 0.011627906976744186 0.011627906976744186 0.011627906976744186 0.011627906976744186 0.011627906976744186 0.011627906976744186 0.011627906976744186 0.011627906976744186 0.011627906976744186 0.011627906976744186 0.011627906976744186 0.011627906976744186 0.011627906976744186 0.011627906976744186 0.011627906976744186 0.011627906976744186 0.011627906976744186 0.011627906976744186 0.011627906976744186 0.011627906976744186 0.011627906976744186 0.011627906976744186 0.011627906976744186 0.011627906976744186 0.011627906976744186 0.011627906976744186 0.011627906976744186 0.011627906976744186 0.011627906976744186 0.011627906976744186 0.011627906976744186 0.011627906976744186 0.011627906976744186 0.011627906976744186 
0.011111111111111112 0.011111111111111112 0.011111111111111112 0.011111111111111112 0.011111111111111112 0.011111111111111112 0.05555555555555555 0.011111111111111112 0.011111111111111112 0.011111111111111112 0.011111111111111112 0.011111111111111112 0.011111111111111112 0.011111111111111112 0.011111111111111112 0.011111111111111112 0.011111111111111112 0.011111111111111112 0.011111111111111112 0.011111111111111112 0.011111111111111112 0.1 0.011111111111111112 0.011111111111111112 0.011111111111111112 0.011111111111111112 0.011111111111111112 0.011111111111111112 0.011111111111111112 0.011111111111111112 0.011111111111111112 0.011111111111111112 0.011111111111111112 0.011111111111111112 0.011111111111111112 0.011111111111111112 0.011111111111111112 0.011111111111111112 0.011111111111111112 0.011111111111111112 0.011111111111111112 0.011111111111111112 0.011111111111111112 0.011111111111111112 0.011111111111111112 0.011111111111111112 0.011111111111111112 0.011111111111111112 0.011111111111111112 0.011111111111111112 0.011111111111111112 0.011111111111111112 0.011111111111111112 0.011111111111111112 0.011111111111111112 0.011111111111111112 0.011111111111111112 0.011111111111111112 0.011111111111111112 0.011111111111111112 0.011111111111111112 0.011111111111111112 0.011111111111111112 0.011111111111111112 0.011111111111111112 0.011111111111111112 0.011111111111111112 0.011111111111111112 0.011111111111111112 0.011111111111111112 0.011111111111111112 0.011111111111111112 0.011111111111111112 0.011111111111111112 0.011111111111111112 0.011111111111111112 0.011111111111111112 0.011111111111111112 
0.009433962264150943 0.02830188679245283 0.009433962264150943 0.009433962264150943 0.009433962264150943 0.02830188679245283 0.02830188679245283 0.009433962264150943 0.009433962264150943 0.009433962264150943 0.009433962264150943 0.009433962264150943 0.009433962264150943 0.1792452830188679 0.009433962264150943 0.009433962264150943 0.009433962264150943 0.009433962264150943 0.009433962264150943 0.009433962264150943 0.009433962264150943 0.009433962264150943 0.009433962264150943 0.009433962264150943 0.009433962264150943 0.009433962264150943 0.009433962264150943 0.009433962264150943 0.009433962264150943 0.009433962264150943 0.009433962264150943 0.009433962264150943 0.009433962264150943 0.009433962264150943 0.009433962264150943 0.009433962264150943 0.009433962264150943 0.009433962264150943 0.009433962264150943 0.009433962264150943 0.009433962264150943 0.04716981132075472 0.009433962264150943 0.009433962264150943 0.009433962264150943 0.009433962264150943 0.009433962264150943 0.009433962264150943 0.009433962264150943 0.009433962264150943 0.009433962264150943 0.009433962264150943 0.009433962264150943 0.009433962264150943 0.009433962264150943 0.009433962264150943 0.009433962264150943 0.009433962264150943 0.009433962264150943 0.009433962264150943 0.009433962264150943 0.009433962264150943 0.009433962264150943 0.009433962264150943 0.009433962264150943 0.009433962264150943 0.009433962264150943 0.009433962264150943 0.009433962264150943 0.009433962264150943 0.009433962264150943 0.009433962264150943 0.009433962264150943 0.009433962264150943 0.009433962264150943 0.009433962264150943 0.009433962264150943 0.009433962264150943 
0.012195121951219513 0.012195121951219513 0.012195121951219513 0.012195121951219513 0.012195121951219513 0.012195121951219513 0.012195121951219513 0.012195121951219513 0.012195121951219513 0.012195121951219513 0.012195121951219513 0.012195121951219513 0.012195121951219513 0.012195121951219513 0.012195121951219513 0.012195121951219513 0.012195121951219513 0.012195121951219513 0.012195121951219513 0.012195121951219513 0.012195121951219513 0.012195121951219513 0.06097560975609756 0.012195121951219513 0.012195121951219513 0.012195121951219513 0.012195121951219513 0.012195121951219513 0.012195121951219513 0.012195121951219513 0.012195121951219513 0.012195121951219513 0.012195121951219513 0.012195121951219513 0.012195121951219513 0.012195121951219513 0.012195121951219513 0.012195121951219513 0.012195121951219513 0.012195121951219513 0.012195121951219513 0.012195121951219513 0.012195121951219513 0.012195121951219513 0.012195121951219513 0.012195121951219513 0.012195121951219513 0.012195121951219513 0.012195121951219513 0.012195121951219513 0.012195121951219513 0.012195121951219513 0.012195121951219513 0.012195121951219513 0.012195121951219513 0.012195121951219513 0.012195121951219513 0.012195121951219513 0.012195121951219513 0.012195121951219513 0.012195121951219513 0.012195121951219513 0.012195121951219513 0.012195121951219513 0.012195121951219513 0.012195121951219513 0.012195121951219513 0.012195121951219513 0.012195121951219513 0.012195121951219513 0.012195121951219513 0.012195121951219513 0.012195121951219513 0.012195121951219513 0.012195121951219513 0.012195121951219513 0.012195121951219513 0.012195121951219513 
0.011627906976744186 0.011627906976744186 0.011627906976744186 0.011627906976744186 0.011627906976744186 0.011627906976744186 0.011627906976744186 0.011627906976744186 0.011627906976744186 0.011627906976744186 0.011627906976744186 0.011627906976744186 0.011627906976744186 0.011627906976744186 0.011627906976744186 0.011627906976744186 0.011627906976744186 0.011627906976744186 0.011627906976744186 0.011627906976744186 0.011627906976744186 0.011627906976744186 0.011627906976744186 0.10465116279069768 0.011627906976744186 0.011627906976744186 0.011627906976744186 0.011627906976744186 0.011627906976744186 0.011627906976744186 0.011627906976744186 0.011627906976744186 0.011627906976744186 0.011627906976744186 0.011627906976744186 0.011627906976744186 0.011627906976744186 0.011627906976744186 0.011627906976744186 0.011627906976744186 0.011627906976744186 0.011627906976744186 0.011627906976744186 0.011627906976744186 0.011627906976744186 0.011627906976744186 0.011627906976744186 0.011627906976744186 0.011627906976744186 0.011627906976744186 0.011627906976744186 0.011627906976744186 0.011627906976744186 0.011627906976744186 0.011627906976744186 0.011627906976744186 0.011627906976744186 0.011627906976744186 0.011627906976744186 0.011627906976744186 0.011627906976744186 0.011627906976744186 0.011627906976744186 0.011627906976744186 0.011627906976744186 0.011627906976744186 0.011627906976744186 0.011627906976744186 0.011627906976744186 0.011627906976744186 0.011627906976744186 0.011627906976744186 0.011627906976744186 0.011627906976744186 0.011627906976744186 0.011627906976744186 0.011627906976744186 0.011627906976744186 
0.01020408163265306 0.01020408163265306 0.01020408163265306 0.01020408163265306 0.01020408163265306 0.01020408163265306 0.01020408163265306 0.01020408163265306 0.01020408163265306 0.01020408163265306 0.01020408163265306 0.01020408163265306 0.01020408163265306 0.01020408163265306 0.01020408163265306 0.01020408163265306 0.01020408163265306 0.01020408163265306 0.01020408163265306 0.01020408163265306 0.01020408163265306 0.01020408163265306 0.01020408163265306 0.01020408163265306 0.19387755102040816 0.01020408163265306 0.01020408163265306 0.01020408163265306 0.01020408163265306 0.01020408163265306 0.01020408163265306 0.01020408163265306 0.01020408163265306 0.030612244897959183 0.01020408163265306 0.01020408163265306 0.01020408163265306 0.01020408163265306 0.01020408163265306 0.01020408163265306 0.01020408163265306 0.01020408163265306 0.01020408163265306 0.01020408163265306 0.01020408163265306 0.01020408163265306 0.01020408163265306 0.01020408163265306 0.01020408163265306 0.01020408163265306 0.01020408163265306 0.01020408163265306 0.01020408163265306 0.01020408163265306 0.01020408163265306 0.01020408163265306 0.01020408163265306 0.01020408163265306 0.01020408163265306 0.01020408163265306 0.01020408163265306 0.01020408163265306 0.01020408163265306 0.01020408163265306 0.01020408163265306 0.01020408163265306 0.01020408163265306 0.01020408163265306 0.01020408163265306 0.01020408163265306 0.01020408163265306 0.01020408163265306 0.01020408163265306 0.01020408163265306 0.01020408163265306 0.01020408163265306 0.01020408163265306 0.01020408163265306 
0.009259259259259259 0.009259259259259259 0.009259259259259259 0.009259259259259259 0.009259259259259259 0.009259259259259259 0.009259259259259259 0.009259259259259259 0.009259259259259259 0.009259259259259259 0.009259259259259259 0.009259259259259259 0.009259259259259259 0.009259259259259259 0.009259259259259259 0.009259259259259259 0.009259259259259259 0.009259259259259259 0.009259259259259259 0.009259259259259259 0.009259259259259259 0.009259259259259259 0.009259259259259259 0.009259259259259259 0.009259259259259259 0.009259259259259259 0.28703703703703703 0.009259259259259259 0.009259259259259259 0.009259259259259259 0.009259259259259259 0.009259259259259259 0.009259259259259259 0.009259259259259259 0.009259259259259259 0.009259259259259259 0.009259259259259259 0.009259259259259259 0.009259259259259259 0.009259259259259259 0.009259259259259259 0.009259259259259259 0.009259259259259259 0.009259259259259259 0.009259259259259259 0.009259259259259259 0.009259259259259259 0.009259259259259259 0.009259259259259259 0.009259259259259259 0.009259259259259259 0.009259259259259259 0.009259259259259259 0.009259259259259259 0.009259259259259259 0.009259259259259259 0.009259259259259259 0.009259259259259259 0.009259259259259259 0.009259259259259259 0.009259259259259259 0.009259259259259259 0.009259259259259259 0.009259259259259259 0.009259259259259259 0.009259259259259259 0.009259259259259259 0.009259259259259259 0.009259259259259259 0.009259259259259259 0.009259259259259259 0.009259259259259259 0.009259259259259259 0.009259259259259259 0.009259259259259259 0.009259259259259259 0.009259259259259259 0.009259259259259259 
